0.5620563602545684,0.5309447627463174,-0.6536356928922454,0.5767805133334764,0.5462805174236646,0.1839482558934105,-0.6771375704452504,-0.14232425974954716,-0.46052197644336706,-0.6492915897853495,0.2286934796226153,-0.0852421234457026,0.437771763601002,0.35434805492613614,0.618372668174486,0.15244822103559236,-0.36408329588083155,-0.24298196949505824,-0.5774256018935537,0.5666771840953738,-0.4610645363659923,0.19908035092416004,0.637098465867391,0.24043203252538453,-0.22697016293934774,0.510434533348229,0.010328507791908434,0.5274246476552612,-0.44975098137074254,0.07899681821802958,0.3618796101263234,0.4121120526928569,-0.5454246589034601,-0.518338170344007,-0.2627463693021802,-0.2822179112169586,-0.4030065196048933,0.07084623302689538,-0.5999353529710818,-0.39811760836671556,0.18358234879979832,0.1487514611725255,0.29167160989625307,0.4156556512879024,0.07636213087097858,-0.45062995027410424,-0.03936030286572885,0.3799593197155725,-0.9185322622456688,-0.6801498966734218,-0.7845588156218541,0.30652084392248413,-0.5559020623929702,-0.5947645739620369,0.14978683804089948,