13.996563109163294,-10.990461081321385,5.353606643787495,-3.4075836128688253,-9.702580702551995,-5.661544641800102,-0.18136480710403627,7.629226751282327,-3.5188314015709126,-4.507942756216117,-9.934549133537114,-4.701607566705408,11.955540724708325,-1.9131562570539307,-5.178456599683157,-3.4504903042140653,-0.9919179969675563,1.438635860371489,-2.615728391218627,-8.026700309529986,-12.361559187778013,-15.472818830149224,7.904197148618603,-1.031357930397014,-9.250885181278692,-7.782019026475171,6.920579108763698,108.92261851828825,-21.843097299892076,6.253985550604076,-129.07041537404217,16.382120117555004,-38.29945868786308,-122.15585550798242,-181.99148527162868,7.741042285096785,-168.53873713573276,46.3793561984951,23.854994587134033,43.27235226917906,-10.260535317877384,-7.557187749474224,12.361691808133585,-1.659223857742006,-5.557952423253194,-20.399566461655343,-0.44778483277201286,1.4171995575871528,6.746756651691054,-18.77181490093108,136.82290326618363,-81.30662836477275,-16.15272697492972,-6.795352245498407,-40.00911746727052,-84.09465787676443,-1.4209919616321156,105.07446055996898,-27.925670636953253,25.408942928028242,-21.695093936768103,-68.9546877931157,40.94647307766897,22.8262280829117,9.224925459209592,-4.290890713090999,-2.889352317160925,-3.7958971841400597,-3.7424852726919604,-13.427361777550916,24.89418327754177,-0.6886193648695935,5.380363942794326,-20.941203918190382,-27.016800636064445,36.72260661439673,-94.72819500420569,10.7004460059414,-4.9839749413247985,23.392496602350043,-16.658994212926423,-16.256591586612032,14.04201503126221,-2.3025184608545657,-6.834260956759179,-12.806475555394181,-15.89635213896953,7.720688202401266,-1.0264755364382325,-9.270183273112888,-54.89158332697375,-126.58382663705393,-59.49335595263518,77.04662644990749,-255.3835025018358,-4.952987624608244,3.509334880970059,-41.91664055743563,-15.940851842978526,-72.42315235971881,-13.394972407594052,-10.00626549763015,43.801842537712595,-11.070120827794454,26.105058036682806,-14.315116193639609,-5.386815673205089,13.826858532089204,-1.8251260904404223,-7.417069543144377,-65.08569950300094,6.404051434257993,71.0337674174538,17.4464120713278,-4.760368094706204,-16.2248618925274,19.006706993478055,4.451256755547174,-13.655530565032791,-29.4910101344815,-36.80777049784575,-46.41195226015591,-42.380560834353744,-23.89778483096795,-2.6200908024190097,-0.39729668412787467,-58.02739348028672,-9.67854346463241,21.329684148516304,-23.293575895969756,-13.345675919229421,-20.348177584676833,9.183428947818257,-1.0765750232151954,-9.321290092297707,357.1582298419959,-193.7168281796663,370.9988125670455,1512.7211092666996,-1571.8927080043416,-9.55537714817326,-88.87379756617148,35.193952844158694,-12.094007361237617,37.54239625569661,80.54181668921402,-60.417040661300824,-37.37868492283417,-69.45325376027272,0.8471901674989751,51.33832806711451,-23.554746196052793,-36.39350141585566,-44.980697913697085,-8.984592788467289,7.278288260069635,15.329607257028727,52.86377812236326,-18.940061588207683,-21.149897038389685,-138.21369423454084,-248.41456498304692,-31.400393021899237,-85.05158203184732,-63.73712738015375,-35.32882923035004,-12.468367382084057,7.08738096295842,-15.447106837511553,-25.756858637765692,21.63594740265534,-5.962387390102993,-44.410052033825764,23.740713580529253,-70.12425234694877,-160.31011923028686,-91.0814472714177,108.85519686773941,-86.40069756730581,-63.69516786610832,-18.223301183366793,-7.416382332427417,7.407446405305072,-0.5584500993699828,-32.26645320068095,-30.40982807884308,47.36628881279796,-19.231707436959287,5.75823180548146,-67.76871522333796,41.3416111721478,69.40369021730496,-53.97158969696635,-125.66646234079593,-71.69123854518544,-62.282541001551444,30.792711767306553,-15.291678660625823,7.045935838338517,-80.1229927074245,33.9281095861288,-48.90154847760221,-60.0321011733298,-7.049261737306056,-47.76878038359349,3.985431787134415,-30.193969625593553,-15.535817510502229,1.2056795566493244,-17.798729973258897,44.78302733433121,-82.91660880860414,-14.816755794822495,-28.55197415786387,-0.6339770764962765,-92.32142209476962,48.16779733874881,121.08313657670584,21.022647903138356,-6.994050749269251,-13.174299095336997,-11.046631243303123,13.717479219633315,-2.031179312601342,-5.699471318759081,-13.198576503951365,-18.585024628821827,8.855837749636825,-1.0598572102919144,-9.339567631144584,-41.90918618706108,-85.20220038379523,-87.65557381113696,-355.9891330983154,-193.37372782548138,21.91549995970626,-95.60091764535983,96.24710344407524,-26.0602207140791,50.767736123874585,-17.50201064021032,-20.300291415239244,3.21543793157504,-0.5771593176136364,-34.255284935714855,-50.096022445325076,-10.17423457262514,6.45344241727541,65.77419252929356,-51.98449932791045,-12.712807834121332,23.42374207912265,1.343076968149869,-16.269608176103056,-29.82680974666521,-538.6517891937569,-275.83368376788604,871.7864772694724,-853.5844940326182,241.8327440241582,-1115.7999126745149,-869.1061670328452,-264.4717642985652,-953.1209754886338,-648.3244026617988,-1.8250502774910586,29.9137426792136,85.78113848708252,-28.005210506669,-0.01737597625185742,-8.5086050451806,-9.841613421459185,10.51459981665964,-0.9846811761107692,-5.803038800761924,17.443049321960416,-41.00982269063704,204.26759309166198,-34.40820766320605,37.471991101881706,-6.986852948004317,-2.032183666843832,8.61397953814408,-0.9079948512645044,-4.864161876933425,-17.13219978804866,-16.93720343488235,14.17765267558888,-2.2845542409072603,-7.045107677912769,-24.807884732188658,7.673259837808221,43.87580321752937,-26.3339325124078,39.18657756559586,-21.99400190038062,17.30879762432818,35.77077178373838,11.128502372012292,-22.938325955732918,13.880143853943887,-1.0182805550481029,-1.9115225948599937,0.24463913114833735,-7.537758881210583,-59.333083442830485,-18.63648484125535,27.409342525843368,-4.000823332592256,-84.87917891512186,22.33277560590057,29.60266321274103,53.34977617868493,-6.460461091295863,39.535991095608644,-42.04848061904839,-5.259880073766731,-7.908250540240239,-20.484349425955727,91.692279201944,-37.57757770147554,-5.390535109726629,52.413569882131654,-28.606641352259995,-33.16670398075146,58.141193129437525,-10.011652955405255,-20.34180067031639,34.34556013629976,78.55427341584215,-43.68232382832199,-32.754339348686855,4.905488726555582,48.297160905002464,-46.88970948572597,-27.112689979141877,22.19306172013108,36.12719742628363,-53.34698509096943,-41.197059844116175,65.44717427758171,-14.979094604332706,-59.767194629414035,-33.880460980479214,-3.3796510348238358,-9.67378471781599,33.35364385044826,-35.02956626992359,-24.373966097133582,-56.58028539610919,-25.870207280285282,-26.915917489502025,23.887281458538794,43.478017338695494,-5.131651220192902,28.712169566711122,-0.5202678580982348,-6.25291909951374,35.124628676854286,-56.76667984976623,-0.5542704681991786,