13.952450450056544,-11.048833898144258,5.408896368663104,-3.5500780937542977,-9.845827670591836,9.317843954090588,42.351436852136196,24.221957238590164,-55.381951159759616,7.873322453651296,-9.778020840395893,-4.659148370536762,12.112878964278647,-1.913362569551532,-5.436685926588769,-3.450706397526164,-1.016216781439596,1.4317477284507956,-2.6122521555108196,-8.011461806334045,-13.99462839675189,-15.341573469931546,6.254546658891916,-0.9161301467316385,-9.097382822350692,-4.178013201693416,2.9565074142843897,114.48044324311643,-21.810495495932674,5.00785908823855,-141.26856565273425,56.38329148604675,-51.471208155856864,-143.36403461961342,-211.5028345789265,-6.60246622182522,-176.34262523047872,52.61192653433417,30.760451757667617,46.16426149725752,-10.066117231033264,-7.562698890332202,12.556817089428225,-1.6600653925726252,-5.954415561961144,-15.716088411439365,-3.9850563869482327,1.7500076613755344,10.67199468919681,-30.19045812809289,108.71083604544522,-48.28438698713371,-22.163177675866127,-23.15785120033078,-30.87258694515895,-78.60060637965408,-16.987886680483115,103.81879468375129,-26.087902651079784,36.682675810611016,-22.396752512381138,-58.03190253320818,48.21953917528469,14.376588706727189,11.927871524066443,-4.053503306523034,-3.5422939149281896,-1.8846176394264156,-3.7430354090518594,-14.432908103841013,27.83622916526705,0.0013202965229890114,5.896666695802151,-20.452429072365927,-26.626649219029744,32.0331184223599,-91.42149723835153,11.279970141591907,-5.404167191637715,22.70072405262519,-16.993458184181495,-16.278893596449322,13.649384164529453,-2.2866774303973383,-7.0770002506376635,-14.27701250627007,-15.754126639133009,6.248869077372468,-0.9038207715901848,-9.407316665633598,-91.85041431715202,-218.77371887572048,-45.16168937911866,49.13462669514133,-283.76886356933727,-4.121482286195169,6.244522891687346,-42.76725869874262,-18.923706492889654,-74.49523134476811,-19.186571558441923,-24.132374726907255,82.73945338343701,-20.002815282255757,52.13961544642198,-14.121078488363407,-5.385732393025814,14.008970857826473,-1.8235066419225638,-7.747659093865748,-67.06414732993969,11.861775466324216,45.32550917910431,40.369356090953566,-29.50138855854097,-16.59485552168316,19.131069334594994,4.134188603244489,-13.657686684580645,-29.7182031480075,-40.05704657981858,-51.66751222305664,-37.78554747481127,-22.554465483728464,0.7091368448251503,-2.300896880969749,-60.42264854343879,-2.56038574888969,23.23205136381987,-21.15203895834689,-14.210494284816555,-19.002366282792494,6.329904831268567,-0.6736080813911038,-9.184801422575203,345.25509776839965,-203.36817482314532,381.87197767070785,1574.5485912894917,-1612.8999982412502,-49.142834975957435,-237.52539667345397,25.161729054337115,-117.294910720813,72.58542066956335,87.40714865162155,-59.24942159907445,-34.68448762345251,-69.14113201293759,4.284369010694109,45.74496961065999,-35.43240617959758,-37.73674598999795,-44.04529958936168,-8.471546223905174,2.8367893936734925,15.524923897232897,52.71969646376841,-19.594289139401848,-21.453395002576737,-167.22909657571782,-261.1889501391076,-25.825242595192364,-121.08368841687374,-92.21225645465142,-26.990487193117893,-10.199328664159308,11.652762325033144,-13.802358413184695,-29.200960124494355,27.521032594429837,-9.173272504302792,-47.18113233593452,24.83976538083929,-71.58725490205825,-176.07580138480054,-88.63367376191263,107.33894324442423,-110.17265660468395,-88.40819497466318,-18.182784410252808,-7.419933054816402,7.452011571220044,-0.5584500995430659,-32.28064961392195,-29.45072670913912,53.25249139754629,-21.926573981100738,7.872010319428044,-77.63876494274409,44.56965467609786,61.98393940591353,-54.742066914606475,-121.59114161880748,-69.93981685351267,-67.16738905448692,22.03532160201729,-21.999193440611062,5.874983047023887,-90.18814597479314,25.54955365339317,-54.256774292985945,-63.127640404633226,-1.7812767768041966,-51.0827892168283,22.312115987560215,-32.321132629675404,-24.730964363474104,-5.479363815357051,-17.34486514191406,44.76061061716825,-88.26661875391306,-4.260330167383691,-32.11464392414668,3.269461816809738,-102.98794278645703,53.33490136280965,128.09927313096543,27.013042748141192,-12.281689269287991,-12.950398087782748,-11.06889543789933,13.925906083105515,-2.028437247819232,-6.168048585205586,-14.861631635451287,-18.07314012310604,6.934932178944855,-0.8601566415984785,-9.158477570489005,-57.60215506149949,-93.04892110989346,-89.67630471855249,-367.3399561262581,-191.2169941482225,14.16428467122384,-89.80475193334416,87.09111224597072,-21.45513079852722,45.006039700445086,-17.879173229697816,-20.209830826457786,2.7943144187774354,-0.5771593179271367,-34.165192942939434,-70.7292645309908,9.23078340449614,9.230985084043311,67.00904457811649,-61.51700526901008,-13.246073892937577,23.8368170400754,0.6914612748767798,-16.285805301066528,-29.899366804114916,-505.3978437028674,-220.57089928891347,839.5907269357302,-891.2492230570866,233.13319278177593,-1138.7625158601168,-885.1614707117598,-262.6942288722629,-987.0839420101256,-676.3334174041877,36.74073089452312,171.10808959580234,288.3580973101329,-112.14495575521877,-78.31461935651694,-8.331365390887788,-9.861100490748534,10.695117360079974,-0.987429564553263,-6.2049981230513485,20.33743176232707,-41.71367283753607,209.56645617336056,-37.38819116987173,40.083238473574355,-6.949381312447965,-1.939645907761794,8.666052527622796,-0.916732907333601,-4.879859390435017,-19.009809779585947,-16.70624838874774,12.013624307772426,-2.180310444814285,-7.563784188691181,-26.23327791369844,8.858616900540687,51.01353247035189,-23.292137778458624,36.735711799229804,-28.12811010358009,23.901195944157692,38.527710818976566,8.229020996797384,-25.899986330145783,13.86990632967451,-23.686616340767895,-1.7710097057004943,0.2998798572784882,-8.373389153456772,-64.59495661058075,-19.526084247397307,31.43147290357324,-3.90037975546485,-85.69492427120878,36.33872727113472,47.15306404409516,43.53889531363313,-5.800515519214596,44.2452173791086,-42.68262967101701,-5.217237032962079,-8.862936225759034,-20.796401298345277,93.16092232366881,-46.01578095971026,-5.328512600156189,59.23052456289299,-29.25673109772901,-45.9942017532761,59.245982865460334,-10.846983607709156,-32.192003986304464,21.466932777143295,91.94782211583882,-39.523411356983054,-36.04791335162067,-14.143333655761078,47.17612164074159,-50.78005768284589,-29.917819777453023,22.19241896302712,43.170246703356746,-60.49374307735605,-35.96556307387963,61.39868224868245,-22.430059908176894,-63.443574257146935,-50.949788284021835,-3.236934414319565,-10.600567692731259,31.660738761162346,-36.14484683144912,-24.498885629443997,-46.978179192494316,-28.01367702248496,-12.738335838521348,28.383673850740717,39.87638959961774,-5.052660985233746,41.66027346288478,-0.48916007743529855,-6.946750400066464,48.57749720041917,-70.58019193889537,-0.47613727982064935,