-1.3407709331869733,11.10749048380594,-6.8182845155221035,2.7663874387758542,-10.969982752737577,5.5616633139162985,-1.6065020415961797,-0.656806979124029,-0.3429387552180372,-3.1809339494484665,-8.441040324097772,-0.7067400804752294,-5.335846664487337,4.698903588904197,-5.777321324699641,-2.06930147377144,5.725189771898236,-2.1876127999375012,1.1480578794737972,2.6785516797952185,7.234210110038377,0.24079675688072427,1.3866418968265768,-1.4654694784378226,1.5839668593557723,0.21120032630895022,-2.1504057920985153,4.147895855176283,7.607771225853238,5.795990851867082,-7.147556662054309,9.05693829551358,0.27251111954464696,-1.6437994359216317,-1.1566675498766905,1.3834211829185445,-10.402702097973688,2.2890186426187253,4.51465853358423,0.30510903647335524,1.3997785301159462,-16.877011576903858,-0.35898764526144344,8.049758405666287,-6.096368932582779,3.631800013230889,3.0101545824458302,5.11464182061746,-2.0205938494553948,0.10426071025005212,1.0073049613527143,-0.8973101016930046,-5.123351401621498,6.5550746687890005,4.082497838740915,1.949302743164999,2.0367941219152477,9.165356159471749,-0.23734520584836222,-6.596299752937898,1.2961110186713312,-4.319652388410777,-1.6599122162496833,-2.9926211766676745,-2.6808422475645464,-0.8200340063290621,-2.9576952808373145,-0.3335391981087114,-1.0951440032776618,-2.3309065427252293,0.39550102950410665,1.9974516749897866,1.823673616626797,0.20408918244658258,-0.9634415368386261,-5.640929948895162,3.8116693303729026,6.047601532767135,-4.463155083093298,-4.061235315275158,4.217227759787166,0.3209350281625087,1.941275497921353,-2.552149171134553,8.510340945135479,-1.673861664828028,0.31928698711184983,-5.653200272349035,-1.5500412854015702,-2.760681839589422,-5.128884967397884,6.791760678085104,1.1084409193324916,-1.4554416888719028,-8.899753455256397,-2.069123260962992,-3.5974715750161264,1.9427032619065918,4.9556859254628,-0.9409569178303542,-0.04129148485759661,3.7863135637236036,7.225423105646525,0.031348821087561055,1.722235325221895,-2.058242679955217,-7.928556164471655,1.672615713557271,0.7566595158097795,-1.444696493616229,-3.942721453878084,-1.5675909407752002,-2.3982570664452947,0.3935813282130546,1.2029743280706866,-3.018191091047238,0.3476964675746297,3.5647580564396413,-4.58512636810958,-6.477959738242793,-2.6993992432951894,-1.258859581132604,-4.884365381525334,-0.3646338005077361,-6.591512089716485,5.659465727670507,-1.7246312824140402,0.3793389123210335,-4.453408835907614,-0.6122736191564028,-2.122381124119259,1.0148928093661613,0.2120998009006441,2.2231035972464936,-5.166030366819496,2.871125718590572,-10.050783493079566,-9.595376196220515,-6.4707942091977335,3.1969903202141454,-3.416202209963991,1.8374228079724837,-7.090935644268674,1.7796741474829267,0.32991148930117536,9.074379342214316,-4.586568480721657,-5.91158770677639,2.742520842199618,2.0386646390949266,-5.267535351688386,-2.66380468014637,0.5137874011902944,2.170930448790652,0.5863711205353584,3.583639638983686,2.145053385392468,-1.623090239089919,-2.218638235864417,1.900323468145525,-1.8436050872929186,-3.197243251668905,-5.120355196335231,3.28932014489433,0.7423415168409004,5.500454509813136,-4.329977588395446,-2.1885080202159353,3.8695061647688713,-5.570553048764842,2.980297668090462,3.378929013485792,-3.219878161485371,-2.399178263628205,-4.075789010104098,6.239217763743043,3.2220996218897833,8.522710377609586,6.089841459369823,-0.8337613989060771,-0.02898892168137911,17.586699388767276,0.19998968366894113,-1.241858342737817,2.9394455478578694,0.5941712876372827,-4.117663461887342,0.04190479591140558,1.9824830464565601,-3.230542337633774,0.9765960724781179,-0.020757816065187295,-2.0609774483126015,0.10194781976821853,1.0150878494016338,-1.9224201678521577,-0.24632620449175435,-0.26800269173827085,1.9705168152894157,2.199666437407303,-0.3052687758177484,5.280429801290872,-0.5069199479225487,3.099794334245496,-0.46549396997856873,-1.1880531516288133,-3.6218279891675476,6.09772714210729,6.0161710955995815,8.280708225576586,5.436819531820575,2.2703354351903977,8.883482752693492,0.6401984313791828,1.5779295382252079,-9.648682666184117,-0.46922883301931395,-0.5920397754223116,1.300873517734212,-1.0510088533464437,-1.2783642473793717,0.573209441912553,0.7494718618407014,-2.431799215319633,2.6803401245802383,6.243560315840217,-2.2713753469626004,3.6732953902338683,-0.5192992874614002,0.26307637897069985,0.24474908415590987,4.560394588876889,4.219944933535981,-6.826760770528883,-0.8007789125293033,-0.09187875154414347,-4.963507100615818,-2.6669436124871226,-3.4262064537438315,-3.7869674543134915,-4.465810026919092,-0.19601456024330194,4.186977682140064,-1.2343172257531314,5.289848151247599,6.645669382865189,-6.188445076259519,4.621226315406234,-1.7455686076230863,1.0234799219837543,8.065940729632203,-3.022021268478604,0.6841979860587579,-8.917886949925336,5.5062668238714085,-0.23756225608104173,-3.2737029140612672,-8.746577810516582,0.23282840864224302,1.608495049359405,-4.260521077330893,-0.8761955853743537,0.8452947434569438,-0.13659050517616522,-7.753485805337576,0.7477991666968011,2.443250376347805,-0.9482903626926852,2.1448055611162626,2.67868654386813,-0.7606802555906227,0.11244356979160308,-0.5594755998449424,-0.08566310193697524,-3.389200877204686,-0.6916755959678422,0.33339741144567336,-1.20160156936586,-2.596336679845651,-1.132339781554128,-2.510507392133316,-0.6337312811964111,0.7859581337811025,-1.9762985053731703,0.9394774507524764,-2.6277189302268797,-0.9802047967416403,-1.000750887530426,-0.5971450884207293,3.0933729518656126,-2.4558266539415547,0.08271718388399445,0.25824135497168055,-2.198515042087596,-0.7806213804411984,1.2130812602784278,-0.20631582659284517,-0.14580709776768777,0.3303415567240347,-0.10131635910217389,-0.03472254205976185,-1.0546992940815385,-0.3666904657834173,-0.29975644064318746,-0.7330337682683952,-0.06478020985469522,0.0013902077452895775,-1.763474320331432,0.5309162481767493,-0.30929879126973603,-0.11712081935353263,1.4797838330893665,-0.785602295625616,-0.10952608463563789,-2.4052896102409878,0.2852982047554199,-0.41771802394065827,-0.008078475747956467,-0.5352546869162369,-0.67376434288192,-0.9886210998881575,-1.0822101393066508,0.19528284614554867,-0.9963024120443726,-0.8798954060184518,0.2612050821283005,-2.3518289343313117,1.1408837600016213,-1.7644194425158528,2.2087548419151672,1.4340176698940037,-0.2611761432444169,5.96635087572077,-5.949838240189602,-2.1285410606945017,-5.182895117577554,7.500725030372678,-5.742794926682182,-5.720198614602384,3.5446041952009444,-2.073324301134998,-1.3234414230905456,6.107801977974047,3.102860633289803,1.266426358212092,5.674119737987758,-0.7058768222560098,-6.921928899055383,-2.1222099205210507,-1.1882142740890174,2.4470623106524263,-5.2048813025871965,7.930063409830824,2.027943689567646,-5.093377530745547,-5.568579028431309,0.9022630305474518,-2.501441833785611,0.038924952989467396,-3.509656900415076,-6.869348226607349,3.993918690405332,-0.6426799625384862,-1.0213176615298087,2.003568246487596,0.22460581037484012,-0.6541982698903741,0.7708081701838063,-1.8306730519427148,1.5045533415829275,1.6699856931129706,-2.1293951105420907,-0.14949574705241744,-1.4794805441115817,0.7439038104126003,0.23977845241393705,-0.525303659373712,-1.8709584283302463,-2.0497428770716994,-1.7473522684456497,-0.18125045529406728,2.2947185132012535,0.6189972678791251,-0.9736095913077673,0.28964986916254903,0.13734381535287501,-1.5245310303363466,1.0440887480650922,-0.49269008168307316,-0.4958606281205047,-1.0853103944452978,0.966603022894423,-0.16541272378358815,-1.0621247897269441,-1.096810296148868,-0.734052119284237,-0.45223642916015827,0.010622894737543244,-1.0424668283354408,0.2821831491381608,-0.9337164128475314,0.2751153455168065,0.09253351291483003,-1.899847188725417,0.03561200587881834,-0.2913639804378168,-0.6360950980303751,0.029347855067824016,-0.29069739583545423,-1.0007070619710123,-0.13624574350092147,-0.2593732800121651,-0.33933091333373766,0.6288729089721175,0.17177071439534586,-0.7113167777746338,-0.4152767491104914,0.23629830598445029,0.5868093080598129,-0.7879473798233843,-0.49086936921366203,-0.5028519692114239,0.2162164964993569,0.5937291180547469,-0.27843840825226074,0.8273086276719139,-1.5597266202494715,-1.2331419656503393,1.1617348531270675,0.26616018119920726,2.5834821351060286,0.6674562123448484,0.6920135794136079,1.1566001276270346,-1.2859299453969195,0.47157881715270883,-0.818955119606167,0.9473320362223138,-0.027394096169538067,-1.183010266170677,0.7152936326904266,-3.588841159970666,-1.607520936019622,-1.6835918984646379,-1.1654218946303914,0.7087632203221037,-0.6310208119847178,-1.0154050218976085,2.9256869014406774,1.1917309863311367,-3.7665908595975317,1.6202325636042978,1.2724010052076131,0.8780239830605314,0.4874974049521751,-1.5201665132204512,-1.0157116702693842,-0.20559246560052027,-0.04302316585604002,0.6705331945461944,-1.2515956449028471,-0.9411731554944566,-0.651425807570193,0.7433428325663415,-0.7168729732221015,-2.5256319099808073,-0.49889790484865454,-0.6999102373562127,-0.5157542593508495,-0.48379492402215496,0.9145169989535877,-0.4686749421570786,0.03110571678966267,-1.1865508192776908,0.334099551904344,0.9007132416074884,0.3747063270184662,-0.3942874149748961,-1.3612178582113812,-0.43632169009506466,0.6640737066777216,0.974686129787241,-0.03240064049203255,0.031158960670035745,-0.5752815649607255,0.4418271999997209,0.013452163604344994,3.3991134214480656,-6.111471593483609,-1.9971817776671545,-1.9610011351360297,-1.2049085607759666,0.5998462574895818,0.0479169800567923,-1.9776318782777687,-2.0627812099684277,-0.6494516697522517,-4.063386879341411,1.8888034786987324,0.5551225835990252,3.615887746292755,3.5793621262397886,-4.038109101893386,-2.2713907103446838,-2.915935005671124,5.444207960849469,0.9128923719158413,-1.8614253102972176,-0.6928674544090142,1.1652478726399431,-2.856410265166211,0.8701783451031092,-4.577249465057593,5.1132377438031495,-1.0111896157835312,0.9837466306174196,-0.12418710188532571,-1.0307222301927048,-0.8004035223694185,0.9515723098482133,0.3582204531097558,-0.3446438399748334,-0.5706547349295443,0.18115126133714354,-0.057940820575947564,1.4750276396129876,-1.4298675251260935,-1.5579957058222476,-1.0053683971556815,0.6758945784535516,1.0920243785856971,-0.6389721777102478,-1.7643537936234137,-0.339236459415869,-0.6818924392359683,-0.015033951338815134,0.7184899763394226,-0.09132836137136052,-0.5402151355218375,-0.4454738486141569,-1.7561808355481558,-0.7819488140565588,1.1861419700477136,0.05527920332059888,0.3193725082392508,0.27545062318620495,-0.6606448291666119,-0.802074103707596,-1.1234493978394384,-0.9382536698265412,0.4000979945991275,0.22900958243154976,-0.2789811654277187,-0.8556863710168116,0.39297357997260723,-0.4217136515534658,0.062131603846325184,-0.5891845887426318,-0.9536923092408616,-0.4914384511094743,-0.6068315484661968,0.5598061353049582,0.49647638330845856,-0.39799189366192145,-0.5517420813266428,-0.4012563153459518,-0.5997490021959712,-0.8767567230298692,-0.32994636172958297,0.04866579239646579,-0.2882945835493336,-0.4360643945804975,0.3027366994442571,-0.04156705335281193,-0.5139507343944211,-0.20613384180876798,0.1649373161489868,0.19805492276072673,-0.23236507978001233,-0.6644760259140822,-7.529517686670746,1.946179735653228,1.7415637607083394,4.586694613039346,-3.239734548986498,-0.8191686703497562,6.033950626509046,1.9256995795849203,-2.5327100158704687,-2.885746242344502,-3.6813918884243733,3.99328084608258,-1.2358412418958715,-4.797142629966844,-2.089727876249964,-4.426494959009499,-1.317858001291605,1.9321297056703715,-0.8575886207419314,2.722915565089495,-7.793097773702599,-0.35071719762512993,-1.7209733025302214,-1.3525606569697053,-0.3117670947264449,2.4611620778458327,-1.0042580256392388,3.5686949939684616,-1.4154964133613455,-1.833498162536716,1.4513518587014622,2.2349409169598493,-1.5780378160536561,-2.065096661710733,1.4484360562692022,-0.8714362330215003,0.4556908792540455,0.5510010825824558,0.8342566473022853,-1.2771373387413238,0.20088384680767846,1.9852733242285825,-3.4978974082436007,-1.4611444072530617,-1.2899765057227455,0.07925542028911071,-0.7911266067022545,-2.457936033714633,-0.7248182375373732,-0.14818394968229748,-2.275577706653858,-1.6263975487748266,-0.7679122661514944,-1.3144614776196848,2.5704242969893167,-0.1622447163552551,-3.4242876651838055,1.3182089222530187,0.7502750004412695,-1.5619524039490056,0.41437507360973586,0.29885079304715373,-4.631280540953519,2.7274429054436595,0.4995445937996568,6.598007801163316,-8.398622929832618,3.2513389333933,1.894284568378204,1.091111746313178,-4.166910033213033,-5.758130035235236,-1.7458644479742658,4.274904804518605,1.1510447172851235,0.648867452750446,0.7497602409880365,-0.09505370992156575,-3.614183235504222,1.9909559494865439,-4.408984815967349,2.421655942097927,-3.498185360440575,-0.4747444024411526,-2.756077368823573,0.3036761124460466,-0.7520118753534207,3.7551273226265875,-2.218827494442284,3.953060911571836,-0.325276985737692,-3.9848902062551685,1.2596757849344127,-1.8992719521018564,3.0729252136913803,0.11668685465117505,-1.9494571905983122,-3.7791743155694277,-3.2004973843323943,3.4431655828492964,-0.05443549991477168,-5.659959734278996,-0.16577909203494873,-1.7872073493463216,-6.287287323118723,2.7570507867069156,-0.7258578698867538,0.7823202440925175,-7.399367803761992,-2.589059597459069,-0.8595726385924585,-4.982710566519531,2.871599431768747,4.379930712496565,-1.3427785336278766,-0.8869120945236145,-7.074463449221771,-1.9078518383463503,-1.0215204774365927,0.5195926938087463,-3.1193483181940587,5.128067202119753,-2.7152257123077894,-1.2335551750233051,1.4804592202620181,-3.953906748895733,3.0523796257873252,2.478401472567411,0.8973051883102633,3.3669745842201646,0.9376024314563234,0.24612647738984775,1.8498546191492378,-1.9852992683679274,0.9712269591072201,0.2959918580745334,0.22998236448116757,-0.98425620355761,-2.429440816130699,-0.46796422168053137,-2.9547204435636645,1.8218369111246218,-3.6415853425812115,4.329351779486901,2.0159110184971847,-0.12507164850694094,-1.9035114736943857,-2.660578430884538,2.2472924219879444,3.581479665452739,-0.33500471477788824,1.4904389041589239,-3.2692257427344176,0.6438052184766606,-0.8321827746733405,-0.9160731093635937,0.10480941161831506,-0.894805715482163,-0.5319243594910473,0.7395813882999192,0.9217352640825517,-1.0608739503676674,-0.9581677496892277,-1.4472011801577738,0.306731195571385,1.723444657520938,3.292620513094337,-1.1352777915772272,-1.4173125462191594,-0.2772565586216172,0.27762385118570315,1.0425196148060474,-2.8211223706108806,0.4875766416738362,-1.6665088035934348,-0.309971936894735,0.44937013006096505,0.5014147584182215,-0.3268405684987627,-1.4350543912577327,-1.2728409040857638,1.4285103102142127,-3.1333719370056032,2.2213129499586772,0.9000530764251983,-0.5594410520689687,2.8603088213992347,-3.193032573379082,10.935397497951817,6.552937090758719,0.7108622337875778,5.738969784478666,1.9271495381070218,7.13460413161575,3.2004156427824464,0.5770892525499692,8.713848529897053,6.687101628575673,8.487006332797277,9.393795953972115,7.686593036079346,-6.453830130521251,-15.268697549376949,