-1.9699905115840346,7.543843832837331,3.3541115326902915,1.0898742777289063,-6.838914455307838,-0.6538513259961621,-2.566843371485236,0.31095462234792126,5.126952794615663,2.595221256712576,-1.7887556617380378,8.266089834255585,2.5417373459880173,-2.6347775897369443,-3.2742809696542143,-4.6967873371414965,7.4557863692048905,4.130932168932843,-6.25982002745107,0.0789095485085157,-0.5289596452478207,-2.2445882688366203,-0.6738933366829789,4.923976856672306,1.367358177161484,-4.840260238057926,2.2777098560799356,2.136604796325924,6.844202211422867,6.9927677133354535,-2.88131453347661,2.2646142596975034,-3.4987817293223205,-4.35949183728199,1.3626556439022415,2.063013289744786,7.554280274707394,-1.9985228873652388,-1.574556725319896,-6.053460125963573,22.215093268441795,8.497420488163682,-9.433571822287707,-2.5686910161595047,-8.228872341551824,3.761715659156672,-7.10953024464003,-0.5080106026874324,-3.6520528288014886,5.93661165907764,-0.5841536652840709,0.5007310433689351,-0.3924385727338347,-1.2195872695743692,-0.5631165242705778,1.667592222589095,-0.49609501214453355,-2.306044195253106,-0.6549603353746867,4.563731518605913,10.372030231044405,-2.898727593212941,-0.4920506986267693,-3.969315230870104,-5.243418792860846,4.514612377448829,-1.0240647006934676,0.6164752063739596,0.5138425420744039,0.5067005798058795,0.8515870499129973,0.5309460381499963,-1.0190315925504014,-6.7240602548913,6.412729530792949,1.5104962086257108,-1.7311510391944884,-4.079551052686197,-0.5508996741358518,-1.0153788942153938,1.064630351508492,-3.8262636769884395,1.9263814810276234,0.6522352796187177,0.5262760766093211,2.1627504207055908,0.6177537852845693,-4.001006911721148,0.4121917630709711,1.5466358475042103,0.6228844497360213,-2.5654872190628573,6.095173087619714,-10.742892393958389,1.7167174275599104,2.1655308056300844,3.830006129695982,-4.7497722032766925,-1.54399177511512,-2.8898992441841362,0.23354018790222564,0.28120589411946667,1.1746223477224806,-0.1290926628505403,-1.2763285165511322,-0.6314272785743209,1.4304704459508766,12.201852766353946,1.4265439910629882,3.524106643772277,-4.289848348742532,-3.5652502576616674,-6.928078866318737,5.335921133808632,-0.672240841160839,-3.8298774877833166,-1.9643886326324815,-0.44027935036487953,3.2957848190029893,0.039468292354546554,0.4932740187172646,0.707799649147235,0.7821512260934073,0.5202737172127344,-3.6500837361084995,18.436579472606834,-5.091610230037601,-3.7452161905178967,-0.9547865748504937,-0.5145137095070581,-0.8181677439971659,-0.15357290878167393,-0.5478594978799175,0.16045453702678844,-1.8031610492872199,-0.7471569654933219,-0.4713264645700771,-1.3498980006015846,8.407885629573714,-0.473468109376802,1.1834253327123347,0.03083178011437176,0.16924267784064578,-1.1767306081790536,0.3496752776884005,-1.1877123539966457,-0.5823303217413196,-0.11125040462517677,-0.8039048328191163,0.044778504708945885,-0.12091346978991836,-1.544827023920546,-0.3688336693415513,-0.6994222607456374,0.3593036710683977,0.082857581437608,0.614811309713108,-1.249120441729624,-0.8609664030851559,1.0055639142800383,-1.1169990795270486,0.6930497109051814,-1.4935549277585292,-2.2545158741940883,1.002618772640802,-5.448520623171819,4.193150504601052,-6.465590568065244,-3.3534631616640582,0.7418606965230196,6.654919172821758,2.9741467894363254,7.065293133741844,0.9993322612518444,1.4740157753546097,4.222443112418535,8.322117820787348,3.8714088136557807,1.3730833715538189,2.067708203601221,-1.3790756549196166,-2.1638405948900163,-3.019333867292752,-1.4207765326391422,-5.454160683485578,5.247994631144505,0.6550359732329272,-5.847272804200586,4.620077953636848,-1.3802820979800798,1.9373323541994403,1.2945007017327588,-6.035878483453535,0.45385688109706535,0.22228382764311852,-1.5055623967886034,-0.2018989724143785,1.3096635309002056,8.467201845934804,1.1776790724517234,0.33602517508163815,-1.4133300636110304,-1.06280602803922,3.0816908954942206,-2.4145088397232115,-0.22410438409166697,4.069781083486247,1.0467114628237995,0.8989535357884472,4.074867583281796,-0.9180932955546058,-0.29041357133814205,-0.9173423869040255,0.3677501295143576,0.77668102679687,-1.446597850734519,-1.722364825729103,0.716134108215185,3.4709104927664547,-0.8293481642914184,0.29124111899875293,-0.9628758658228218,-1.6759013052716147,-0.9380601977286813,-1.2142743811856793,-6.217552923116404,-0.1823811910255707,0.5794406284108893,-1.6614004596027674,-0.6936555581938334,0.8190222027095004,0.14246589274367175,0.10030231907819871,-0.2907323915510065,-0.5413700003585478,0.8262508393114619,-5.408948277554434,-0.15398387034780278,-0.7588933015617417,0.12850445554743456,-0.6501091619856919,-0.14771471400908673,-1.7959385290179544,0.3714113247466686,0.931356457805843,-9.54839380945722,0.8429643665337958,0.8770293619643309,0.5662768704769158,1.2096718750977857,2.8262580877242063,0.041399746191636784,0.31331937113208264,0.7514789349022806,-0.9309014389465132,-0.5781629004556484,-1.4097172596561525,-0.18478458193736957,0.7360072993844976,-0.030745030968793108,2.4818431985980953,-6.033471516534067,3.3624094716783395,-4.2398763501613965,-3.1010030384735265,1.951555437916773,-4.487631010109491,-5.619097451200014,2.6128761563090603,7.330458165772957,-1.1438731899709824,1.837167012435311,1.325843777055653,1.5598515855879826,1.5363978936032021,6.453653120545842,2.741654761114566,0.13324785591866176,0.06532573437433792,-2.613039691486244,-2.039857430544307,-2.197657960608393,-1.5235965543254213,0.6071726433652612,-8.221299102047071,0.12913781676241182,7.0837744774149884,-1.1409630782945073,6.995589559815979,-0.04924218811671199,-0.5395467382482982,-6.265798230066843,-0.3489298778037772,-2.7295649753030347,-1.424290015495332,-0.6863594155557172,2.5782780760791635,1.903784039003133,-1.0457111278787867,-3.3159344363889116,-0.7310473530684535,-0.8437972868800853,-3.7097261929390486,1.2806802177565506,-1.071288190711883,-3.3426464283250317,-0.08096719728943756,0.25440067428626184,-0.5440768481795515,-0.7987927361680197,-0.3547075396460582,-6.018572564891605,0.8931906262668826,1.732296252953783,1.3899201368344845,1.275924033972871,4.602389057357625,-1.627246781732514,-0.3983776053678372,-0.8218663782664143,2.982661553875066,-2.0784078203670275,-3.199924021657647,0.2823038448124574,0.15382667149569249,-0.060456392270427636,0.22971750490525242,-6.677947153665201,1.4308147776965412,-1.7318880274014785,-6.206355015955397,1.321675731444007,-1.0704886273595093,-5.354469771401081,0.7985638789474782,1.4595027487286145,-6.131411007929668,-4.412314728440822,1.7062312268721593,1.0039844536785019,1.4654175987547344,4.895147775974393,1.6616944235691198,-0.7445784095964263,0.34550973472653934,-2.2405457934245554,-0.0032970632969857427,-1.5941629435782685,-1.5301404501830185,1.1661913808514295,-0.30789316577843473,0.03241414811184364,-1.2063850675605174,-0.2668327784982813,2.0767927168234737,0.21643517794340947,0.4078266078089899,-4.99682594341702,-0.5496086079632668,0.17298544192396062,-1.970496235723619,-4.309791436843652,-3.8054737120337303,8.412180835118598,-0.4025854440313396,3.035238538441762,-1.3711319430071172,0.12753535728804402,2.3825876137105646,4.959439540289505,7.623931159227083,-0.799582094836521,-0.11709567586451652,-0.9016912760050941,-1.211807667999031,-2.5221183923903676,-0.09198184612704227,0.020308172075414462,0.45846630327429155,2.8243117094967554,-0.18213544644123073,0.15281365974933636,0.6396111305759374,0.24334658140821724,-0.6649579661307937,-0.9252136475178478,0.07553397931513267,-1.2323408540653258,-0.9289898000259704,0.23427609872286537,0.8959924988496538,-0.5174577754792474,1.5059943152103834,-10.240478669956444,-8.373469736520263,7.494646672572552,-9.328312539445765,5.712073817277075,-8.614738007301241,8.18047423466363,8.485417318721211,