-0.3569997194524509,0.6994756283874553,0.5284433422403116,0.1603961741810308,0.2094812645482388,0.6209847550023211,0.6510752900463963,-0.41846709750968625,0.580377488619026,0.4703901545437774,0.2756624940355059,-0.45778435555092334,-0.4436980553968795,-0.21290679399486784,0.6040512613084714,-0.5820897095524977,0.6395144242446205,0.2384723259087218,-0.36069648984426905,-0.6056658037268942,0.5761068291966605,-0.09353698839194002,-0.4155094009318634,0.21565191657027039,0.3605251109592653,-0.29898203059505113,-0.6241333566832926,0.4537373628154213,-0.318769734880404,0.009083101095617718,0.666626033980001,-0.41561567873241506,-0.3154570617517747,0.5031558349891696,0.49756704380870764,0.46865295433608734,-0.3742912501526061,-0.20732812861271738,0.5048511403515066,-0.006405583848474783,-0.13803680326185808,-0.09560461048314817,-0.17733605253024154,-0.5736004594880898,0.521867244910394,0.22466826085288738,0.43995178926181655,-0.32042630998448723,0.2584275075899456,0.5268032666775684,0.26552422367190354,-0.627956780289618,-0.4394938697869302,-0.1589144608037425,0.3446809724709703,0.5021546137779456,-0.4422315089967675,0.40277687502471315,-0.04686197023775007,-0.4766687014994929,-0.6910915493286841,0.1351967665634708,-0.3296044715203123,0.031708610868577014,0.01113373325239475,0.6903837339235863,0.2048064306401104,0.3373713847280875,-0.3891146823477215,0.17902052559988835,-0.29352633803674844,-0.10312630780878829,-0.26849223775744446,0.17423578002929085,-0.03828148913510543,-0.2654750548992846,0.2630789392618169,0.17057566056526274,0.0142321112950482,-0.22651899259887992,0.38285049644926117,0.6198667864551115,0.6031379527150029,0.03498398707223871,-0.008258451234188113,0.3498738045548948,0.5470612191036099,-0.054851139844304675,0.563071471786317,-0.20041787318799476,0.635916930947575,-0.2865004282448731,0.004209173218957862,0.2766184810902059,0.318497542889707,-0.6839871763412059,0.1300580087721478,-0.24225054605679547,0.6940564319218823,0.42773086980456587,-0.26071085213316303,-0.3874204701657411,0.6299516869526227,-0.09393885956312809,0.4699763846303686,-0.5665010481601476,0.4350317344553021,-0.07431629308859689,-0.6092203387462999,0.5016114862334033,0.21981100308297408,-0.190456572750606,0.05706476725128429,-0.09119786263662644,0.0696018993043499,0.5877070918007063,0.3283406851267079,-0.6097153038669845,-0.5543644807259552,0.34692219242683353,0.4041366314331778,0.499897672075055,0.011821723007754859,-0.6914833370577605,0.48993448019174246,-0.11790165199841074,0.16116562781201982,0.2908355516171838,0.053013132698158105,0.6600332338142323,-0.514024944861881,0.3747137241934384,0.3700547710412163,0.16824325460718104,-0.5001391796605671,-0.603460404277798,-0.5958961837573613,0.6114919604796178,-0.5228515124677688,-0.45673143432750063,0.5779633341420753,-0.07211592210970597,-0.07331209262510319,0.21730007999429002,0.3343536669306364,-0.4251276199454001,0.3621636991286137,-0.12356285311614257,0.29015249764809026,0.540929235678903,-0.5301228141507834,0.3352009805945122,0.30277580487427613,0.6135904957932419,0.30758747541318554,-0.16142079788591357,0.6712525994182004,-0.5937427443526345,0.5943661290995539,-0.31216036026327904,0.5927882810346399,0.6615726589758659,-0.5284617193420447,-0.48965262290804423,-0.5123971084258031,0.5083685766142565,-0.4713516777059692,0.42137684889087623,-0.3094260042446003,0.6521084509840263,-0.003992276049209598,-0.2742844909152652,-0.11229507245130554,-0.6745687190510742,-0.5932526883942418,-0.5495893997566861,0.5486820590618058,-0.3841685334839513,0.5264161414180015,0.0873149605600233,0.6737768469409882,-0.07831041914200254,-0.06296650308962426,-0.5448576538647518,0.6340898555461674,-0.03420224833560315,-0.2548793956546524,-0.63445199479571,0.1386276671474358,0.6172041368779408,0.659603016600004,-0.0036955972000488613,-0.1900559820665464,-0.2623700548617706,-0.04440553913973999,-0.6630533555440602,-0.3079300133468536,-0.2221077509660288,0.6039376200451614,-0.6216824845562887,-0.1498003131129082,-0.2973040311283025,-0.6960029974871581,-0.5327541779483419,-0.548909884925695,-0.5811626359301412,-0.09143620170528899,0.4411470436671947,0.5363762089945308,0.42229151584481994,-0.6251480642448927,-0.40536017845445205,-0.6820057878382713,0.06383630428735276,-0.48556973757729327,-0.18867347649800703,0.4356484314455742,-0.3392058721546115,0.647553552149595,0.11869044922136396,-0.17925066388395794,0.2541531085667189,-0.4062774905012189,0.6926177222001859,-0.39050791044012567,-0.47424112755192005,0.6504192668760072,-0.6496442230734568,0.1397379729942574,0.4494479849844133,0.5258330962043656,0.026775451803504158,0.45210222662952293,-0.5470769114159725,0.19900734635131367,0.6286084123267863,-0.5048550211494158,0.21385050550808526,-0.6177936086361743,0.6048861428909771,0.4078032778336991,0.5040899074834582,-0.34458162020696176,0.1591116017233144,0.01919541251393908,0.3301455526157464,0.4317765630133681,-0.34025100263527097,0.06666958036748583,0.5958588423988591,-0.30470044455014295,-0.3195775019900017,-0.2125374859998223,-0.5649593836521583,-0.2712822722610067,-0.38023166426726407,0.08757511886564029,-0.1728277744510598,0.41927028589841386,0.21319082589680127,0.0334640039679458,0.318483650503522,-0.6057752637255935,0.25482584300926747,-0.052108721305760164,0.4236464636936901,-0.004512184532840746,0.6978219118982829,0.5207656567226036,-0.6200001116955907,-0.2459565082022787,0.39460163118539504,0.6690511345590389,0.16665656742559387,-0.029928051257555266,0.4760729474931822,-0.6031887077572904,0.2850162525424461,0.4434694522416862,-0.05018727148702706,0.017199349497037386,-0.47485708484350375,-0.4678927901375136,-0.6779490164327441,0.20269706535979748,-0.5858572693992814,-0.05846652617341186,0.316837923985293,-0.17185384045397412,-0.3418911157910022,0.5699416028468629,0.27808159756107753,-0.33688999926147756,0.24837854619125033,0.1460928439579796,0.19619739993399776,0.6558443626964194,-0.3942217004389431,-0.4944997694868971,-0.09908313296445936,0.2306481406780786,-0.6167872827542675,0.551547422147715,-0.3946437832739836,-0.10639195180953565,-0.06261888639438873,-0.3566669221714113,-0.12624852366216976,-0.6912576726023443,0.6145873220513849,0.5408987058080061,0.01632021808068207,0.0672917031411826,-0.5264636386487898,-0.2788847514582274,0.08951574654279681,-0.17260254378658746,0.48969230161858013,0.6538708112346445,0.09849332711347458,-0.6503514944481693,0.0512009400260377,0.09831865844736198,-0.5390859497259467,0.3959725015436537,-0.33443955627237754,-0.35718732176467294,-0.5027354382821493,-0.3049133402446956,-0.35084675291949496,-0.23022611906883467,0.26267795441280084,0.6072178301525162,-0.43156834172674235,-0.12190075254748811,-0.3712060624229431,-0.25595771913930393,-0.6580200143579035,-0.259159154344312,-0.43849797967274257,0.016788467289271303,0.19685478255261157,0.4147512421919408,0.6214658690493247,0.19618798672000637,-0.49946463039690775,0.6509071590478563,0.6391318445393863,0.4724523829666323,-0.13850394259243626,-0.6180081224990481,-0.5155211705833522,-0.6983046193529805,0.20684102696403805,-0.3180671586727223,0.6640724259239903,-0.5827877967351531,-0.5953770594694159,-0.292540800034615,0.5340396825550981,-0.13022938530621464,0.20139578145952264,0.5387602174439716,-0.5826138184134496,-0.05944078428047661,-0.20776807154153548,-0.062206711550082394,0.45763227155109076,0.5436818529962963,0.23086372582807224,0.23790766278666964,0.028048707945685702,-0.6979213109020711,0.521788980547278,-0.1326837839219558,0.3468280609035983,0.441496729759455,0.2141094851207781,-0.6084340276769451,-0.3766682760944429,0.6016246777572449,-0.3614481264057924,0.6365244313398641,-0.6208918846568459,0.4117494871503906,-0.40545063495758754,0.42351616877197795,0.3496813656597755,0.2202837585528472,-0.6965574932951253,0.3121117819790882,-0.6208348180267612,-0.09674422706872665,-0.6032126849879136,0.5036874454533353,0.16956105096507446,0.6063457348895285,0.2054383703328635,0.31024195292833934,-0.5598456444077022,-0.0017058323172717271,0.6555040984436338,0.33807384036857413,0.18972730147337546,0.33050068286803924,0.661451835369657,0.5747893033934934,-0.6646386870509425,-0.2916267127935312,-0.16543122274340605,-0.09927117259428919,-0.17359251980981938,0.48448073919831525,-0.2033339931748967,-0.42773334469093294,7.567731132037681E-4,-0.41819708545971346,0.4043411013034186,0.14455603528175776,0.46284813514149814,-0.35263458872456194,0.3482957458225613,0.1151587157718229,-0.4810941953643565,0.42228826794434204,-0.104866559662801,0.6776153114088816,-0.5952973335914598,0.3937692576146452,-0.014257176504082092,-0.02461965718418646,0.18470112692861207,0.6677658071378298,0.2948013394537444,0.5416624351744994,-0.31127285678703864,0.26813066688737186,-0.4098860330251851,-0.20042225742030073,0.5833886197381519,0.528699548544395,0.40843113744686077,-0.22035827088591947,0.05025291519619024,0.6993204064308274,-0.11392985437267855,-0.41200822406287935,0.16135419857003486,0.33505661518056984,0.5480933222089619,-0.17115015882558204,-0.2950951241319376,0.4797887206271485,0.16897653574922666,0.1486021615054257,-0.6798592606717706,0.49118068945203786,-0.1293690090417966,-0.2735101890544275,-0.2499658628927558,-0.41653002662016847,0.6203212093756116,-0.31172898748418043,-0.585836447114217,-0.41221789507719064,0.6314512653900588,-0.5356660878936781,0.14133362847183506,0.2466629579422751,0.2543718289416871,-0.14739528649269795,0.3825934162024114,0.1702636729854371,0.37228922771997075,-0.22078573077762437,-0.049894192134035675,-0.41389351625590204,-0.31096132489949857,-0.5237471857638369,-0.30412403679775873,-0.1873997600903542,-0.3890875949611824,0.616059688988126,0.5566506948271965,0.5784681861462404,0.08391329985531548,-0.5446373348685501,-0.5526441525303334,0.09599158130733554,-0.24926460075973828,-0.5498022437947394,0.5852434859962508,-0.02453417544630987,-0.261549274487448,0.5039085655654918,-0.6295251966680382,0.641506911123279,-0.12168744565884315,-0.5943592715336807,-0.2638297960574551,0.27883967195805426,