0.665798487765761,0.5682947831030563,-0.3679837118007913,0.1433330081318024,0.6899973072726218,0.4027483133113974,-0.521346014323131,-0.6569616812766188,0.5631308321263975,-0.4827463860572464,0.5132532238540213,0.0942132495435749,-0.06681316976456919,-0.5258209380946921,-0.5146228775470154,-0.2569994577760835,-0.2299239122019225,0.2471259730556884,0.34447931296248724,0.31140705838447524,0.2174978131796853,0.30479582448924747,-0.6908455286130165,-0.6877877470386735,-0.5139200031753515,-0.30771038139179324,0.4920158743633991,-0.08950059043469161,0.6969192112690643,0.5273130716592862,-0.5506162223768039,-0.49456329304304614,-0.30930054713356053,-0.03549523056952064,-0.32210274803560085,0.4635520749053117,-0.6326256852332672,-0.289404576048326,0.6768426150592799,0.2861125441094484,-0.6850491487568995,0.19634972725299438,0.13542030452884468,-0.2616631411854581,0.32321926228152464,-0.27176649547470766,0.6883529541972728,0.007036206112800314,0.25932590555739066,0.1534916953533777,-0.4888341117061484,-0.01410357551405228,-0.29310669579677595,-0.6231854070639575,0.3981519523241339,-0.286019125177535,-0.6610561824401404,0.26501195734195215,0.28146146550741,-0.5868485155260825,0.4071900498114218,0.2681069438457142,0.008938404210941941,0.2839716984812858,0.18630833748213793,-0.1289960616805378,0.20125328875423576,0.22727328078286435,-0.48838252355597656,-0.6306236523394757,0.35556285728316595,-0.6400649868686142,0.4921384867598466,0.03666300964179714,0.45335686649492657,-0.2114603410439423,0.6683166747975988,-0.08394629693544775,0.1643308816052449,-0.40655870466870714,-0.0852580919638386,-0.5679133674591665,-0.08394497455445016,0.3583941932597219,0.2630069731450868,-0.029027331308530635,-0.17911251179892762,-0.5427403108949626,