0.06338037509489991,0.09261809205804872,0.3280146872813223,-0.3291907719802781,-0.6138719388829501,0.08502429271122647,0.014098125064360367,-0.4218999880783905,-0.5607904112684743,0.4383355925442116,0.2941037538743131,-0.30192553840641534,0.6932856317288043,-0.12697076992769696,0.697761755724003,-0.6751679548113492,-0.21993862430054378,0.202955993799261,0.3207700455328213,-0.5776777657726141,0.5129811836283888,-0.5007766325752174,0.4858402249381939,-0.2753158815620662,0.20507359985485196,-0.24055724116390698,0.39890123378151476,-0.26885609331266463,0.5832323810262534,0.6792339586161689,-0.6788671618551423,0.18796900852079712,-0.6918196069519947,-0.2312213189442135,0.49683782864039716,-0.5197492014797359,0.38807449444283204,0.021863633824248607,0.6652472394958366,-0.19468834251314115,-0.5788305213324906,-0.17174881379237206,0.44118895710577855,-0.13269408070086597,-0.18082857842269995,-0.3776348861017193,0.37513641148327537,-0.2808935731944048,-0.0521297774430991,0.08217689888648683,0.09748921685720624,0.08284327072620656,-0.5246461695538047,0.3318262624095438,0.4150241519147191,-0.19551599194164393,0.14056549446517275,-0.040091346134116246,0.35929088919907426,-0.1593820570806912,0.24617847019578554,-0.6574897979224087,-0.21268787425930719,0.5371311534490855,-0.16027831989450336,-0.2440306313835902,0.20428469479488565,-0.46026851488040976,-0.02439786305642566,0.07899351680064681,-0.5839369869555303,0.27530725002407497,-0.3518698956926286,-0.082844366047361,-0.5739566133663003,0.3608756802688933,-0.6481359207174981,-0.6650533494614621,0.666652694235605,-0.4665985670795282,-0.4394460971570371,0.2514556790668917,0.1999812907710421,-0.05096118224494517,0.11967075846656094,-0.45459994375194407,-0.06481410012036815,0.37437393817867526,-0.3800259063389428,0.22362480780168414,-0.4078757751156156,0.6850181257447183,0.060776570587568024,0.6343399870720636,0.29126869386881327,0.5984254425924036,-0.47847162600043835,0.45226249303264066,0.4692831033709113,0.2980821131851493,-0.660945710700385,0.4274776603060646,-0.0922684397748541,-0.4447616689597385,0.035236613157044516,0.2732344241991541,0.01922506447134853,-0.6778735483978043,-0.4438510071368661,-0.6299645118418917,-0.039102880618283375,0.5571333362790196,-0.3313933178668067,0.584283872178387,-0.5605640607425962,0.04766742840782945,-0.38619065119595664,0.03939403281005471,-0.5650141625680958,-0.5795144770651277,-0.059785441373761516,0.5356753849079472,0.30306784581252355,-0.02798359634102754,-0.17101030339528955,0.692443765736148,0.6142537646233415,-0.5872566994184187,-0.6146479956195977,-0.6182847490314713,-0.3393345531884224,-0.10002070844977284,-0.5021829792307362,0.6374849654317265,0.3964558856332012,-0.5676057605436717,0.16483620189637127,-0.2420080155594589,0.486264956322741,-0.40257536581721987,0.05451649458869012,0.5705198856620801,0.3112290657476553,0.5992213424097457,-0.30192557154921856,0.5991809657524483,-0.173540805871508,0.45006398639852985,-0.27861099105458403,-0.4342194194616511,-0.12301200184174732,-0.21780644292824036,0.29147820659177937,0.4622565231272775,-0.03897696584067911,-0.07021128880683969,-0.5040650180992403,0.5603364872380339,-0.12007185307112145,0.5423345886314153,0.08331991517933346,0.16995580839208746,0.03369226370511291,-0.5790936483358681,0.07121768608114198,0.12262522569270495,0.5087293724779864,-0.482086943375389,0.37612649832280054,-0.3606623838437048,0.16169052335300538,-0.2913790602223689,0.4355601914209948,0.2447505178750311,0.6285541193908262,0.4292986506842378,0.3777030789606064,-0.4897197606466776,-0.01740310420827218,-0.6178994773506084,-0.5523303703351677,0.44839103022454396,0.627933488327906,0.4308271095995828,-0.2781189585811466,0.3387621881542997,0.5471491785096747,0.5544759015449807,0.6332822419068442,0.24416363504255856,0.4221355620926206,0.28701856390055647,0.0900837130489125,-0.5302308127545448,0.6165755649889113,0.052114271096163844,-0.2005767193510784,0.3342852803357341,-0.053390744529783984,0.6004925148385458,0.4048040319569963,0.054671414078489855,-0.22695097116534957,0.5755116183383713,-0.18762442812769886,-0.3016234428629964,0.024097506067942143,-0.13107660457687187,0.016087028432193895,-0.5720851583894794,0.10185806378474715,-0.31585275428931336,0.6354499845695223,0.05225158144667641,0.4390139415260299,0.6983803097416448,-0.5478878357728226,0.007870116171438402,-0.04611266654896773,0.2076447261483293,-0.12734779221178394,0.11953701905212466,-0.5973238168118618,0.050394885790053134,-0.14503227898152504,-0.5633169261160428,0.2470022696771096,0.6355826857014908,0.21433903047935488,0.3059647764915412,0.34298993203171535,-0.04989908894225026,-0.2272874778907819,-0.37602974674149003,-0.6850688787896256,-0.011700831022582237,-0.4690416531223355,-0.4838184693629968,0.10217763322650597,-0.16721049122903653,-0.4711823727737935,0.5092035804039607,0.26223843941881053,0.22103334791804652,-0.08903376083097947,-0.19708061974636615,0.17614499936418482,0.6562234092984693,-0.059917810761147994,-0.6923722173382707,0.5339835549043925,-0.636251263988211,-0.510984879736166,-0.11162917669746486,0.37907992931505397,-0.5439454768508247,-0.6958826460814241,-0.44544605434503765,-0.4413422916115521,-0.2510192807521978,-0.1394934090751785,-0.4523878131179063,0.4668765916449611,-0.4283118489817378,-0.07250841160637433,-0.38712634382056155,0.4729940885852668,0.03005338994555473,0.628602858467598,-0.6060807753148436,0.6029793451489402,0.519937693094606,-0.5843685032582898,0.6586370520505254,0.4872438458829864,0.24200821313607968,0.5797902774051715,0.5558182891405965,0.3002396722364342,0.44381362074948916,-0.30442831430076617,0.3095382929905337,-0.20048767588278077,0.5075892508574038,0.134089120025097,0.6857174919812266,0.022380057136886067,-0.3862093333033562,-0.10735237580941137,0.011152868906133317,0.5177490695046589,-0.4593719522647516,0.06600273046867389,-0.11003914639512347,0.17865847490876596,-0.5911034517813147,-0.2677750759442815,0.04576985283847912,-0.4020145060563171,-0.5508276704832136,0.24230057710263864,-0.2798502806299734,-0.40467237859373817,-0.0450336431262065,-0.11244087872001973,-0.22133664152648652,-0.24258640471300807,-0.10929801699299935,-0.3272717371245765,-0.28442508742060635,0.09748183046061465,-0.052593851675229564,0.04487968759808947,0.10664640337241427,-0.3290999814049906,-0.018223770833268316,-0.4802613774916412,0.5366036832457874,0.3848864447099125,-0.2641903116194835,0.006791590326835961,-0.17624844745140655,-0.6904712329022391,0.11445569773065623,-0.13666239750652687,0.6788646824849416,0.5353824298721284,0.6977718575996112,-0.2949111082523022,0.36888157484365314,0.6297664609338838,0.3818432003653429,-0.4328614166383088,-0.6919247384616666,-0.3805392827367293,-0.12075744419289747,-0.055926784354167536,0.1702741633735092,-0.4281559321875526,-0.33491318315168905,0.5417189966552716,-0.09464543482061194,0.05959963805013646,0.22876503653751512,0.4454719582666502,-0.6483756824244657,0.675948429971523,-0.21581068966469247,-0.1486270935008952,-0.03713377174211885,0.5179592143134542,-0.29705789404651695,0.516048747941249,-0.4852918643656371,0.5748178766576346,-0.13503294146659517,-0.33964674825748276,-0.08036574012512421,0.046026264967233055,-0.12952581073129577,-0.39099910495864826,0.4633520424805331,0.37133519434596884,0.024503194849965326,-0.4353021120472237,0.47737620557495375,0.17980383083978613,-0.6078870191434287,-0.3997628394507635,0.28359067016815376,-0.5402880168448505,0.2274376769484977,0.605732384644236,-0.21380285924435932,0.4141389291163109,-0.2961258508982798,-0.2493703434390404,-0.05514221909577699,0.6988580367549075,0.11543863256463238,0.2113443533039,-0.46001198801392407,-0.3602180150137002,0.180853385870558,-0.5246665948061926,-0.06294668606478471,-0.20347029879523854,0.3621988786950847,-0.3388779157264793,-0.028627233946081465,-0.3232277676723903,-0.3910110934204382,0.5912678177412236,0.608330956994382,-0.6871496193645411,-0.5436992981155155,-0.1785480761678111,0.48604702198320693,0.3877424625629047,0.14211474289147208,-0.3361465985009161,0.01844947997757118,-0.15820207247773854,-0.2357068183369851,0.44666788926562084,0.6263530283357304,0.004736756379091878,0.47164815306524654,0.6240975493048626,0.2725319290574386,-0.32074842564800865,0.676325885447449,0.4923471083702555,0.6039340052554563,0.6531354014796733,0.2862551269114454,-0.22287672795335822,0.05007609622767728,-0.3638070537525227,0.3866820799999293,0.03684519659632346,-0.40868812701913854,-0.19371948367829872,0.6488376545957364,0.6732345309980645,0.3940603729179468,0.20565461452391087,0.2115559240366619,0.5571650435390632,0.11223208170266441,0.5543957798346648,0.6681865171951253,0.4626119363588681,-0.6250114617282987,-0.357990197601595,0.09641681837330685,0.6552528820735515,0.6206191168284858,-0.27860530544628653,-0.4073566587347132,0.30473262531928946,0.5947172256491424,0.46119740169172374,-0.48469481998620534,0.0808152474428867,-0.6920129691884874,0.013170626702355692,-0.19688425166070977,0.353607804396036,0.6449098369945678,0.020475525803406502,0.1144027644152873,0.04675085605738505,0.3291477098472295,0.3309625395472058,-0.46721081484609184,0.3899322387446862,-0.6150393409388402,-0.013702106600181896,-0.19777795775529527,-0.6167091868709127,-0.013938283156501474,-0.06660982533025206,-0.5091207240453913,-0.47876117102060733,0.25423310759466633,-0.15109378405771712,0.538757598397346,0.4269411893300481,-0.6403251950918794,0.6807524201538702,0.31776866861549746,-0.07884757739581327,0.38345546752895276,0.19223295651052763,0.6259439448540853,-0.3096784888007303,0.6295839309703188,0.3451826307649548,0.3488715796457278,0.3288366368663378,0.020118170033817107,-0.22229231479734674,0.05176316367262124,0.3089930698861878,0.6713767503993675,-0.2797454964812933,-0.6854296459645326,0.37972693265534874,-0.46728355614537964,0.250561012626786,0.1903460936864273,-0.3886293757519903,0.07148818232810994,0.41363263879395573,-0.04643255680161695,-0.6113556057391221,0.20868166205804006,0.4272199421835847,0.5104111343480908,-0.6921885240954982,-0.15058229681060709,-0.04363893296758048,-0.1330033106995916,0.15638356935211017,0.21084558670195264,0.2723882575763067,-0.5056159639261371,-0.6550244973016625,0.5271513023899839,-0.38761628528253345,-0.10936223224329455,-0.6791318957342225,-0.19271903185568484,0.024405546338912454,0.3205425106174118,-0.178450216052216,0.33563187236893777,0.021890809400956224,-0.3874228975081201,-0.6760321059561938,-0.46063741322989055,-0.12252103393288405,-0.1894701242745549,-0.6885680432270846,-0.5018784815599666,-0.6379157934570284,0.013659575131938051,0.41507197255599193,0.5428918913576533,0.3793813854352983,-0.3054193816007799,0.6904657178350586,-0.3197001994260663,0.6589566288607425,-0.04192558426126325,0.06251010069934337,-0.21287029219659054,-0.14679077562677034,-0.20319758563019003,-0.487177734446155,0.6469415489818884,0.23367706036386693,0.21141916859208654,-0.5060825029434382,-0.05341983800421113,-0.4982054253105141,0.29285808266747393,0.33312154566651553,-0.6849818908055607,-0.3828225577656859,-0.38641468118429706,0.6366360758070053,-0.6296300327981198,0.603364518713801,-0.057609124065599815,0.3203870013165442,-0.45693458141175103,-0.3834665761618483,0.5838095672294825,-0.5207538956988563,-0.6359334360255757,-0.4429580961099507,-0.05146244457323301,0.25992757579728354,-0.6533367396972793,-0.03326652886835968,-0.5147656712065141,0.42532194758542685,0.548779127342399,-0.5132188311050735,-0.3531276302765617,-0.2107593412931173,-0.4201311851324211,0.35142990978284794,-0.6736786935744626,-0.4394942815887403,-0.3876141437231544,0.06233300982745127,-0.02387399985283034,-0.1359702242057489,0.0724487824673945,0.32626548554534596,0.02646174685026037,-0.09600746869255972,-0.4822683667890103,0.34583145075191624,0.23302326991847178,-0.5995690677006182,-0.03724658478871401,0.22836965548472,0.2231273450004022,0.26552106451081725,0.38263949989872414,-0.5774025695053953,0.563582960321924,-0.010459121903644175,-0.2839235284365343,-0.09438225593049387,0.14790526802769854,0.4789634099664688,0.19658006868295275,-0.4752476864852845,0.5932241880462907,-0.6696582010013256,-0.13165516089543694,-0.5507528118418998,-0.35123864067855354,0.33360759183695876,-0.11115790358921573,-0.09376474057401074,0.34802232189978866,0.5771153374567886,0.28498128494630803,-0.5365754422736735,-0.21412489166902032,0.6742268901941673,0.6130485591141501,-0.5221818593785734,0.16945877832291167,-0.6525596051465906,-0.12521549236716034,0.15535679405625547,-0.021609981073113405,0.09102933990243944,-0.33713847229147387,-0.03928825560785132,-0.5249918775748847,0.08686806715142292,-0.15133010230284571,0.27954080075590704,-0.1705766102395092,0.5705815517973589,0.18371977602662493,0.26735706373173007,0.1669063028579404,0.4363675298204073,-0.03688501747948392,0.11974496493099496,-0.2933209753825039,-0.5711996590921661,-0.20454706745042567,-0.2320046180753838,-0.1585561459474254,0.19863686007615766,-0.06184686001283668,0.44231612846039337,0.10600677148637161,-0.20289424400727873,0.5906157212123724,0.4516109864023963,-0.4988722414661315,-0.5506279613354846,0.3897593583966865,-0.4955936309925578,0.17525266910770132,-0.5171700347947302,-0.6766136365835472,-0.260159981218904,0.422055625514983,-0.310411411389518,-0.6335279660718837,0.3507127039170721,0.325743151200121,-0.42502531532410814,-0.4461276158674203,-0.3375604009431642,0.17884609753175817,-0.11491114674478398,0.5300941345931429,0.3823237532756696,0.2087474939307684,0.3164119281817426,-0.337331719833016,-0.34708950903567587,-0.4205308899714617,0.5891692145397078,0.3703177949881937,-0.06873290929838216,0.4842619255334317,-0.2863787659198063,0.6005079492571321,-0.6271322301692724,0.41231988436210654,0.29466080669080374,0.5931160775844944,-0.2756487340106303,0.3594593437336233,-0.4949429266990439,0.587856619701989,0.5237522070963088,-0.5421197938802246,-0.6886025891495782,-0.22725465055211985,-0.5301044706894684,0.024148174622708574,-0.34075928932908367,0.32928491842284235,-0.2455228229488043,-0.032689099489279894,0.21520430485069797,-0.0927973744545576,0.35094200254414765,0.660584412517633,-0.6763302877433887,0.6574698693136165,0.12360424848462614,0.5603193383585534,-0.13549796469214725,-0.53301924616393,0.5585431709774737,0.6549803848791869,0.09563919367458307,0.0716658665784462,0.3246411715606845,0.24464535248277208,0.5306184794358155,-0.5230337998963316,-0.05128107016040129,-0.4119460206682199,-0.5639317788983861,-0.014510325672280278,-0.36694352387103046,-0.1904902160628541,-0.5620966380621591,0.5213222764376835,-0.5433230753333298,-0.46803782064876154,0.19742565812052382,0.6488630916866978,-0.5163962444953739,-0.20463105598463166,0.35973845877658683,-0.2887978146203672,-0.5481103623498804,0.5309627812641626,-0.413151328051911,0.45895726167223194,-0.26344982471861905,-0.20768065290739668,0.2665379973977152,-0.19486470266501998,0.16762228232183873,0.09314756543065272,-0.3644521103128116,0.5249818562899797,0.6414021664730707,-0.030504344003574713,-0.42816792159422,-0.3780693526710209,0.6885050108817716,-0.1294086529129801,0.3955929292595681,-0.09833633105927375,-0.5432773556381392,0.48780630971472805,-0.527472361301723,-0.36405898344823984,0.32974352781430727,0.6552600232580983,0.4351720766142615,-0.5437425393518664,0.43463322345847133,0.39835024452067547,0.6294403964745836,-0.4054681127351436,-0.4084386466713815,-0.6319781361080434,0.15341990688374163,0.48393366421221606,-0.17140472029559428,-0.6211414579573106,-0.41580856763181223,0.34759862608363035,-0.37753192982196915,0.6681054243969464,-0.4140937022723511,-0.06361396729043833,0.3330634659220637,0.4105045718217386,0.658562253920643,0.028975652236343907,-0.5250533590686317,0.16034798351706459,-0.4781189606621288,-0.12149659121873535,0.5136056672433036,0.6474268061007482,-0.16759776244565983,0.279581644678792,0.5871543065751805,0.12757852000514092,-0.29563247936274367,0.13794912879292276,0.3360829503682705,0.08130757189481952,-0.353817965507789,-0.6478558829980835,0.2742301222273633,0.06547822454912355,-0.5658008358257216,-0.5375080641859106,-0.14651670480039025,0.5533517199016389,-0.27571340512723663,-0.31265238780323534,-0.23719670337575316,-0.15273663641644364,0.6490926003557709,0.049932051102099195,0.659002923474205,0.21600906985709611,0.26514178244863407,0.5012486897520168,-0.547704014282,0.4955331889479435,-0.10114875691076863,-0.5345336906699019,0.4639690025067469,0.09678420509378738,0.19426834885600097,-0.5261980950056175,0.6366141750749701,0.48862740753053324,-0.6122071284632621,0.5113358716436285,-0.49080280554954997,0.5664773403068615,0.02635660356345859,-0.021659577466333846,-0.3301793960946245,-0.12116343799958407,0.4054950782374247,-0.03639946347545675,0.06837827771416971,-0.5357998413599214,0.23245620562890723,-0.35814508911027465,0.10938331326091,-0.35019075778985737,0.21695255337900665,0.04088323556228568,0.2520871127558014,-0.21848968919589756,0.2583740691562363,-0.6240855876828165,0.12059359390685653,-0.5095001774114197,-0.1667606125275325,0.01992832730961236,0.4710081475987704,0.15800833673932901,-0.5096251601272122,-0.431926737431555,-0.42425273937790764,0.3130003426126353,-0.36622912667977237,-0.03718204567437067,0.6669705996909254,0.5907406503812087,0.4142771954897069,-0.5263924644361894,0.23168264249350812,-0.008399304935853058,-0.6387421043454081,-0.12931053883474186,0.3703879579776037,0.10975248364093149,0.5640398952947059,-0.6025752773692139,-0.6807305858563304,0.5504202697739937,-0.23955199660328103,0.32879831574182505,-0.007305423270277389,-0.07786545510162857,-0.5940685946659432,0.005990528083084867,-0.37155808177143895,0.5769553948835406,0.6817470560855015,-0.1422300613764126,-0.6876261097402684,0.6769068604568371,0.4543766595548886,0.4591167307101145,-0.6776295947202178,0.18888583806441195,0.6208146110842543,-0.0641158787584456,0.6631715103144808,-0.3469158720487706,0.4655750023116756,0.20145323149810856,0.6643645818157489,0.03148451154126686,0.21522760025580967,-0.39276394701262596,-0.5169128175552453,-0.37673435664255095,-0.09501740902395395,-0.19647112656672527,0.1911023608248127,-0.0670260750094861,-0.030694672886650287,-0.25938247656029834,-0.16726064661126172,-0.5049060050059067,0.6347535439624881,-0.6078160444773157,0.2157786332081777,0.39517289388005894,-0.3718101571106267,-0.44603800365737667,0.44169602327558777,0.18292620158224016,0.5172333319561602,0.5602389121443239,0.694766693515209,0.6467780591118673,-0.027724193096153593,0.5691975283762518,-0.6086344591909423,-0.6879390650787226,0.5805979362060392,-0.2047576176443882,-0.558613163934562,-0.06337707764015821,-0.24691739331604257,-0.08764880194937086,0.09304140117743087,0.5078657858785216,0.1427329288108241,-0.38285730825315334,-0.37962419169804623,0.6942588799491161,0.4416637298356161,0.023748444068345753,0.16969446494101093,0.3721479534802665,0.43944615532302156,-0.4352735591445312,0.006650208449132333,-0.06479817457327708,-0.3893539933430751,0.5931517190747244,-0.19989347795714563,0.5991124305409441,-0.1468926911588342,-0.4793321632124725,-0.1580413487220137,0.43818795877389904,0.32099332955368776,0.4846817225404112,0.6339389216875739,0.633251618451119,0.5878089416730641,0.6150327436941783,0.07301531966551222,-0.6282173459580628,-0.16541195805811149,-0.03363499672273729,0.33633003577169984,-0.578490775844102,-0.6128581613384296,0.49708095314904077,-0.09529030554111995,0.5976859920694,-0.2762761170288782,-0.49084802235666436,-0.6293847755436364,0.16206348804144755,-0.3593208999296634,-0.28478923518682037,0.5519853202395346,0.628078987386433,-0.0013952865956238236,0.17024866368966618,0.577763102858232,-0.29792760242423966,-0.024737526461002135,-0.105111028368162,0.42398197183473063,-0.6356459153284504,0.4239417511679302,-0.27439356192503594,0.6611219964965245,0.5867250905255197,0.17718454241753456,-0.04558900290910184,-0.075965263687223,0.2945734010335408,0.3457442199095926,0.06641289695383945,-0.3649300014680328,0.1119433647235587,-0.15863922062415903,-0.251666148886131,-0.6008762818316958,0.1769992386878576,-0.10060372532038264,-0.2755717158731197,0.046162798067462374,0.6830766324512978,0.49358508302905824,-0.12157344174994045,-0.6776318776574735,-0.6129603545643436,0.22011455523944146,0.34101061981226444,0.3253726821155125,-0.6680656488504013,-0.11803747515724605,-0.6380188058786801,-0.4578412538599894,0.05495349536078731,0.6268795127445252,0.24467369083364798,-0.4199874219913901,-0.005500345537510998,-0.3163868568944225,0.1973287143914252,0.3815221861619682,0.071658649463884,-0.49906489978486157,0.4520214841089696,0.6839390291058316,0.10166774594062633,0.6227403130480271,0.21640280610280482,0.32131071830189706,-0.21001334314001224,0.3299495448780403,-0.24309730773654387,0.27462760549339926,-0.014646855512601809,-0.05384206330334129,-0.6358037935849904,-0.6491880816270742,-0.6012717865999302,-0.46106805074490165,-0.6773705113305741,-0.5842852427286114,-0.04769079172603907,-0.44763048784420223,0.09495260385067994,0.6193710113470874,0.2968128696353297,0.27899763726723026,-0.25789633123527744,0.43359951824702914,0.628003765435798,-0.17970639246197329,-0.2750618397182923,0.5726204653008367,0.3449665687050447,0.09507677318264773,0.48069451141456687,0.586699203227351,0.1228947685252949,-0.6662714823964336,-0.46836342806606035,0.10691028743360897,-0.1778088367919407,0.14365911752372185,-0.6332883029226464,0.5759527257786832,0.12344947767772507,0.04765107685477199,-0.2607891163910938,-0.3744674943967362,0.26440941862300116,-0.018330333191482362,-0.05568264509276388,0.05516485561154605,-0.23974877493430063,-0.40755783276282964,0.28007648551074815,0.030334116779431097,-0.28738073360276484,-0.3024319900511191,-0.14627939315353566,0.24978597080079323,-0.14446287000108715,0.36213357083805997,-0.4275716078621141,-0.1676882957733501,-0.5520989458216625,-0.6942342794822048,-0.44650120442074126,0.5427204258140912,-0.09748919318656968,-0.4172305954014407,-0.6964328821113381,-0.0852180473357439,-0.15937834981458132,-0.3245445582578898,-0.35011118344574893,0.035757329109260216,-0.12122624173746421,0.5069760259807898,-0.24113349038917808,-0.16727843429151712,-0.30882098640648903,-0.18505481973923288,0.24789231328394612,0.04521800909378926,-0.25378088938668286,-0.16916563366783777,-0.013772576919258261,0.6818701994257705,-0.2103689225024689,-0.3174081694169248,0.6890388132694489,-0.35958694527366863,-0.360268460376796,0.5791480280553765,0.6358610521672114,0.5211905108590824,0.571552608483104,-0.1545724806971478,-0.20934973873466678,0.48350367894006996,-0.10296288338368242,0.655201342234794,0.6652454743104914,-0.5177212211059699,-0.5025361001984301,-0.5434273654592093,-0.14854940043042708,-0.22063980270955375,0.4320467047867802,0.001100774981860675,0.4490994609801455,-0.1506798766890849,-0.2668250273927284,-0.02747083903669667,-0.1616355742518808,-0.5059878907631824,-0.6959631460040816,-0.3352064233433339,0.38421700200342346,-0.6568183562110746,0.0583891318236297,-0.018551887165482728,-0.08065144519714029,0.15028302298548957,0.48501189720618876,0.019857573338144086,-0.17099362661937112,-0.006762317967592191,0.6809092903257874,0.46346502966649594,0.6570996712967063,-0.340795349466628,0.5775907482938161,0.13415554617505177,0.16757779203557788,-0.6694792104442199,-0.21620862260709206,-0.4458032884936027,0.12848249300087677,-0.20419693831436792,0.1857625946311734,0.6334482127291712,-0.6617771700236256,-0.4142079693977051,-0.6172117861745376,-0.3675061844331375,-0.4154782536829401,-0.5221485450209595,0.590854785995446,0.1560593498201862,0.5161298712233024,-0.47387557821971094,0.22142738736963608,-0.4964578947017372,0.6158019890994533,0.5561829367779514,-0.06494298068269866,-0.3553129801703843,0.5901791907807636,-0.2864064970294178,-0.6189323939204632,-0.6015930576833391,-0.4618812832700677,0.3751570762264098,0.6648454233196708,-0.3285454870110551,0.02366126100722432,0.5196683925637033,0.43327636439486894,0.6611141773645679,0.463224860087025,0.3118740715401511,-0.26334991027270926,0.14229466511576216,0.4387621045687955,0.5788973528730488,0.11187357688857913,0.5443614361620166,0.26951612169276984,-0.34726986114020636,0.6371103122383159,-0.5232383047054985,0.014659685270487999,-0.48451831183077143,-0.16801589166054698,-0.31504636567213123,-0.1625008560608152,0.5159079695798021,-0.17973924341654735,0.5093637327173914,-0.06092527171256468,-0.6736688019908849,-0.2665564474094047,-0.4199437312960795,-0.33511405475238465,-0.5216037466854023,-0.0860073961831408,-0.0914896872172214,0.5031199506593156,0.5541957071693122,0.47590078340510233,-0.06463960772257826,-0.07384112116699004,-0.683868690756196,0.19813335955083355,-0.14083183187138193,-0.6207087708291648,-0.46553413643487984,0.5629608891921527,0.5062528096037544,0.19144924743281544,0.41585537583108345,0.6064890896465946,-0.09468049917901411,-0.627555031886554,0.34923706832350243,-0.2772874114904721,-0.1969143393047934,-0.030426181758265503,0.36728486242887914,-0.14480727708089103,-0.001683886470531859,-0.3163953796435423,-0.5277696134676548,-0.3780165434161594,0.18163869036889535,0.19007265304397591,-0.20581769040907844,-0.5502977247544145,-0.05277675830754203,-0.32355919845346687,-0.5618357284579287,0.5416670910469263,-0.2101320149203023,0.4890924873534346,0.2329260813309061,0.4727928338210361,0.4172470173372964,-0.31373145457994,0.4201703985088203,-0.00953425468488489,-0.20796438881015594,0.11395854158197238,-0.18282876634437262,0.005885832595325047,-0.2276609793817878,0.5614051491201679,0.14884813891971882,-0.41560774468373285,-0.3586872837040719,-0.5887204908439321,-0.12280457385121846,-0.013940552795708938,-0.39192799380080845,-0.22326716549428094,-0.6434494558738763,0.26937494445348464,-0.278049065633308,0.613428844510701,-0.48747612623319425,-0.34891591104568104,-0.02911979160933409,0.5093097056364777,0.48049612971666855,-0.0856906361971802,0.23211541776167555,-0.011753749015099402,0.3464265067585035,0.4748262733398645,0.6097582600130855,0.015872675588708418,0.30830038226809253,0.6519005420030786,-0.4715271129988956,0.16680304438090154,0.6208816592250253,-0.3546347922682425,-0.24348769377991486,-0.3979236043815105,-4.800235459240243E-4,0.094639528819351,-0.2963708208226685,0.4140754278119052,0.14059988189527883,0.2881651546687173,0.48065715006886744,0.42331164077991823,0.26680434377615037,-0.29674210359244546,-0.4824905123072384,-0.04263080286179988,0.12470131301424481,-0.21335194900952736,0.015052979778069298,0.10694717458468561,0.2502476121893433,-0.4649958821378116,-0.046224716033627655,-0.5626605776315691,0.5746408183372329,0.5025096374303657,-0.6016240370143118,-0.06416152620549465,-0.6314648071918246,-0.6509146276643568,0.42237147887220683,-0.10355055164001459,-0.48302567630325854,-0.6518771199586315,-0.26948437833224437,0.4829476384264464,0.3804783980441233,-0.20338123067304525,0.37929795015252155,0.469712332531965,0.22956039467275835,-0.18662727961564252,0.6869935963855267,0.3369175447074575,-0.3594687473787777,0.5724353849661532,0.4846987119370181,0.4925588647392627,-0.6902097113522708,-0.600734324917746,0.4884968699840684,0.3084444721808175,-0.11811748325752747,-0.24391871978408425,0.5703627587335229,-0.5093242018689573,0.1934408988554741,-0.43934198082469944,-0.32838020136030477,0.45729302415013473,0.010717614825176969,0.3193589876939873,0.4377304545778822,0.06665802934044351,0.4827437844128435,0.21044641809790698,0.15690786391694056,0.029796477428283286,-0.6547564170448074,-0.6722468114868725,0.05749871739746493,-0.5516814658473789,-0.2077355756885521,-0.012435246856850601,-0.13970178654139964,-0.45331292055863887,-0.5169291998641199,0.11308453522862527,0.29191942210912836,0.6134996405357593,-0.4288148290098055,0.04113080704991001,0.24404910079694542,0.43109952253236816,-0.06945437172942281,-0.15526487675693013,0.010884157767097169,0.056229685090855575,0.31058569724914986,-0.3669133932671925,-0.24674663507466782,-0.6834085227648887,-0.6223726599856946,0.47678970235898666,-0.17711047762709198,0.6090685200659753,0.4943150275434114,0.2116761628055951,-0.3659709072312214,-0.2749749076341324,-0.5480966761670277,0.3984358909203296,0.5919764348797045,0.08648582311346142,0.6020482485530492,-0.04189571182076768,-0.020518948998379583,-0.24584695879026125,-0.2646638564087809,0.06496759897238502,0.6617373663710819,0.6641157290898585,0.42312241773112946,0.35872057960213466,0.5995270630012877,0.16475276087890867,-0.2226637561782669,0.6367352462362679,0.2574852515787137,0.25873178823110377,0.6897446499869371,0.5050716915907252,0.6606828026473726,0.6071530378144419,0.38775436824537857,0.20338636590961734,-0.5123224449443664,0.3237860516346891,-0.6118331509476541,-0.025833731750260935,-0.2081011426001655,-0.32300379943123714,-0.35661329961599775,-0.4792593713853811,0.5156898060024846,0.42535536003900387,0.05642030359714867,0.6912959857856034,-0.4974562068641687,-0.5599199167287379,0.391587409253225,0.13764276276601684,-0.37696837246133863,-0.6866603305179658,-0.6727959381917844,-0.07224364851374421,-0.09137297897504182,0.016123198237990466,0.18458151509975884,0.5401373952494415,0.03509971001621548,0.1527552707825588,-0.27547891319074413,0.5358114108351872,-0.28664504098630816,-0.4387030422273089,-0.6719276486311376,0.4903092991135154,-0.26943908936934974,-0.2700328789919397,0.27265544949484166,0.4732455808697438,-0.6618853884459865,-0.060630938377041255,0.07773729931580986,0.28713295742712774,-0.1945403735670994,0.5987036758439455,0.4260847176176634,-0.3801531863944617,0.44997823747083077,0.5213009826580657,-0.23279477344885363,0.226675190775666,-0.48685701192492925,0.0806984097358554,-0.02107875377237356,0.6381646518538282,-0.318177531846164,-0.6968557799346781,0.6011098170434339,0.28899455936214147,0.4510976354541538,-0.014198430818148089,0.3624757877140454,0.5808868701438856,-0.1088438803368792,-0.1179216117679277,0.3968121717151982,0.4290811724480619,-0.6842080331968711,0.06640556373529805,0.4895376167977523,-0.3028214552908417,-0.34624961571061075,-0.6195647839461258,0.308386731555212,-0.6008190188215616,-0.6033826175150382,0.17102859360731582,0.2539646826016899,-0.35967278604319003,0.43816465423086703,-0.04244773457633755,0.11646407970664319,0.17984788503220284,-0.0699775119454007,0.011899177841927622,-0.05582261140953004,0.029038150703260435,-0.14273765906941738,0.09929966133148471,-0.38247560717774126,-0.3529322407651343,-0.21506608655495174,-0.18861370330829486,-0.4208497886280642,-0.1352769574831415,-0.05718973390868387,0.6251243203324512,-0.20376468280671994,0.6527980567298848,0.5005574937955557,-0.15788157241501077,-0.2745055850656206,-0.5428737838107447,-0.4607450864618281,0.5024547299037827,0.6144281546820229,-0.3537335859572559,-0.35234654165282353,0.025635155662037112,0.10422591485026089,0.26063188000042514,0.46277029662791835,-0.09168959962984524,-0.399694189390279,-0.08662738650132795,-0.5656202411361886,-0.2955847045876374,-0.35418806503984224,0.3735965093680913,0.02166988547921156,0.32795965733617605,-0.02852339232326795,0.061537132942551476,-0.1722033271058201,-0.5478746182855498,0.6020901877125906,0.6030496513610577,0.24427748432341612,0.23046963553488098,-0.4245926966724103,0.12734024948188094,0.41212711582637906,0.13693195570027772,0.07365443972052599,-0.052892820210110325,0.11035030642272303,0.6109918186758743,-0.5191104914845887,-0.565704518765584,0.55486582834293,0.40272153503826447,0.2613001206945095,0.29744078746427494,0.4321478330036779,0.039627559896715736,0.00411298087869183,-0.12189903147709946,0.4018315290111454,-0.316927648801708,0.50012353481966,-0.08585257602469287,-0.4187593680048399,-0.19328341681564187,-0.09706054168645672,0.6667126932374638,-0.02774429027345815,0.21282079408844246,0.2848691150474406,0.37536210051357544,0.6071525665567339,-0.4956071517838389,-0.5770288369043857,0.2925832525470261,-0.4249982221959395,0.4520674080764431,-0.5548826489729063,0.25395842722251283,0.24393030841609042,0.13425099803436535,-0.17099276426694976,-0.5355901959516531,-0.48299172541111723,0.6874650564302622,0.17890832139585888,-0.476319893587561,0.6507337216020683,-0.019032301012139263,-0.5945175731098267,0.4757351175811293,0.22505003084379338,-0.07436607913297821,0.603393721923184,-0.15295251363556872,-0.3174587910842069,-0.35827893893730894,0.25948104579292053,0.23774544467512648,0.051910978354071435,-0.05645336875248452,0.6311116005019615,0.2473825137884047,-0.1629366531822768,-0.6487477501503116,0.009920795949292405,-0.2463912659440352,-0.4119378662099679,0.5107272220398993,-0.6695227149616703,0.6172963669883451,-0.6260411093576669,0.09241294765725627,0.19649942358015937,-0.038302563852915195,0.6499389645164064,-0.4518920070991985,-0.32091550381399536,0.6659830973682686,-0.5475532842730827,-0.6679576109223826,0.5919985279617337,0.42503893474631127,-0.334088524935137,-0.26161235335777006,0.5684101414074949,0.45766313366852485,-0.11659248440407977,0.5720177849767427,-0.6484620923999957,-0.5056618069687251,-0.6689590368114642,-0.3472651033285409,-0.33148324898427683,0.6435205502607237,-0.15793091644239676,0.25532168289245427,-0.31762546933187874,0.5219154538867561,-0.24828299673806464,-0.3913192601515427,0.3113462925871071,-0.5605222442945457,0.6373685920527463,-0.08302961969550593,0.2678394306113403,-0.3460962826912611,0.6512688667154258,-0.3759563609978984,0.5011987924281638,0.5521510752377561,-0.41591373019309197,-0.5803532177011432,0.22900681353595487,-0.32195117555256836,0.3576444470194422,-0.618268844733435,-0.08900996754185131,0.4053316031105938,-0.6261566408455186,0.26388155931986024,-0.6423114364521155,-0.4455434314495284,0.04425113881632581,0.6702616590611632,-0.5271183009642731,0.3693344751060954,0.29105899349476727,-0.6873733880497939,-0.09565155691183636,0.6066301734783994,-0.3549481882693586,0.5148502961546333,-0.6781222381560149,0.4455605512047365,0.36995901284887145,-0.1799358335589495,-0.24547071083006222,-0.699857742439953,0.21501006768553554,-0.03609775691920447,-0.19901888349700747,-0.1913856215516926,-0.4612690284624337,-0.19550448163684742,-0.6226126538979814,-0.11371534524763738,-0.14302171266555275,0.6457578560098969,-0.613496179500737,0.5583218920153996,-0.0530812998342477,-0.6448468450971822,0.47992687914141396,-0.6619601124828772,0.0861224562502827,-0.6394672213649674,0.5421249456705177,0.18399192273068887,0.6221506863644721,0.21277992895688247,-0.14947015406053366,-0.44428138741698137,0.6529770574343035,-0.27810302310164786,-0.13971011205507233,0.5932649585959349,0.35229520881278353,-0.6861809322954806,0.4253731130828069,-0.030394115198401517,0.39622440672690984,0.013636798766922476,-0.6004554578447214,0.3078932598564206,0.6391370001002759,-0.6619411964509468,0.3613280467478235,-0.3830393249955,-0.3537082927482437,-0.624156880597763,-0.5236016609105698,-0.2212043812714472,-0.4803316792015297,-0.5504246211848732,-0.3510644406738188,0.3207121650732816,0.050859688365551214,0.38556988898031186,-0.6796900614624123,-0.2772690428203363,-0.3989114785625714,-0.22918200695266333,-0.25094925782436645,0.1471963903718262,-0.5566233419219384,0.44680677978594274,0.1503890852495522,-0.66706568534394,-0.5943938674239612,0.2796797676508779,0.08675048970886146,0.2702774933403357,-0.6743282177393928,-0.24539084539728673,-0.017591317667209783,0.1660588871788986,0.471136589596703,0.3693981611197492,-0.21390168200973386,-0.28080335270893875,-0.5142389663325102,-0.6517700186353269,0.6247204325422988,-0.5422319443559862,0.003989976629723446,0.06112883657736745,-0.6206404359936135,0.4374929872204776,-0.5780600734177813,-0.48190346984879906,0.07166836276342226,0.36932107517608803,-0.5703578638531941,0.009036529614086852,0.3742612209339289,0.6303399717564948,-0.0057434885945893965,-0.6185236372479705,-0.14690655346196657,-0.18250398084353348,-0.6623168990343488,0.5877468451307792,-0.48710991418071586,-0.47235891460790946,0.4744586093956613,0.19167585768564666,-0.15147682945134078,0.2901942026080878,0.667036372528871,-0.697997541842719,0.1058223588965449,0.6402284824477746,0.5155087931727076,-0.10438479279665236,-0.3753597074385708,6.900055399761129E-5,0.12754311693814058,0.10836797071006188,0.1750794453316239,-0.46349148679329377,0.11176104104010953,