-2.8381276003516027,-27.127103152550976,1.0388424615077565,5.233779063201147,2.534832697633078,0.216052626443794,5.140011471065816,-2.5352174679772044,-0.3858021561381844,0.22606589710993016,0.654090409775158,0.0703071426081254,13.384061400263521,9.80182968615163,-0.9609765967658545,-14.136881619252192,-0.7599343048336936,0.5504418509425768,0.4454443341332949,-0.41663994519980746,0.5265912775101659,-0.4108980571344829,1.6136083374679115,0.033229241521039246,-3.302897886583564,1.516218329710035,-0.18401703595145247,-3.120417280492427,-0.2875061768937418,0.08819578003807188,0.0393868436679078,-1.0135578805874061,-33.56849937630872,-13.413765930584525,-1.8991625164078139,-21.983587870640214,-12.647923366658292,-4.633459756157547,-1.6119835478728117,-13.38306855050732,-1.584185533618133,-1.5925864094865312,1.8712492611434386,-1.5193970777043784,-2.4140739894332013,1.556560965658704,0.5167299953917737,-1.4942651413913282,-2.244936949675788,1.2549734347085513,0.12076785836423538,-1.8952154530925736,1.286285306256577,4.177587454596165,-2.6141895369910904,0.5636658052416464,0.550490358800178,0.48815011131393443,-0.963750947216748,-2.0455769656551617,2.281450495220501,-2.1965077945481317,-2.5795195951930356,-1.6915979409401352,-16.932314306113255,-8.023127639053008,7.641467214523721,9.106681413501446,-13.288241628868642,-5.588494877998658,-1.8394681804074207,-14.259315498052173,-1.4371821052083258,0.8528122902928786,0.8921243994809125,-0.25136053341838654,-1.3914540734486172,2.109398292803597,1.7491545954218424,1.6423060591012362,-11.704450724294153,-1.4073705247099384,-0.9892366884405411,-11.569328834932973,-7.968570933921737,-3.7721287781137844,25.372542055492357,18.549591498844435,0.37698149483957,0.95921195620609,-1.3298879190448385,-2.5867065183894113,-20.228009637761723,1.9391612753907743,26.338893303120752,-0.3840143887274355,-0.011617652114076834,-0.10007789395548468,-0.3007083372493506,-1.2005735535782631,-2.3291945453864034,1.5882223539067968,1.6334216067040086,0.19915734883339248,-0.5367574727091634,0.37258844672271624,0.2788976981958579,-0.5893237045454949,0.18925730122010506,0.424108438797768,-0.2381530312895579,-1.5845035992760028,12.541107844604376,-8.584074057693142,33.084471339726626,8.188871375496484,-4.009999091353108,-0.3616949463795282,4.219289858686501,1.8165496092661777,-1.346091882265966,0.900252950145182,0.6951054722523252,-0.40089662412180754,-1.203596682390554,0.7842564359861539,0.4748871274474168,-0.7227704367485378,14.89769992307409,-14.197296250350627,2.9807739970095453,0.9598693272856211,0.35581834551218516,0.44363708896454757,-0.46216479814063754,-1.7246106460091104,-1.2552478563596687,0.42557361567315743,0.4852793126661343,-1.2188276143548726,0.3966693272403932,0.30605457336173464,0.8155497262911284,1.1275843081856811,19.195188218541002,-12.047199402777757,-31.87480275801604,-7.955270330363675,0.7205992660605414,-1.541371437144534,14.813243888490662,6.776744187383658,5.316522267603695,15.385335151730304,-14.318519554127038,-11.801491154959638,0.2579857116267961,-1.4008790070575947,0.3226621490710563,-0.7996948428813294,-1.2658804725042185,0.9541959560308797,0.9777621901123708,0.23460560978472916,-32.39342048260023,30.4388488274586,28.137962905387802,-8.034575201562689,0.9104960727599365,-4.6562473098107775,3.197203188731125,8.305293644702997,-25.15941304420411,-0.8757776936922138,7.832779665055931,-1.190436797077981,3.3678476055639037,-2.8115962563025154,-3.285098745800935,-1.4366224072092455,-0.6224785998012391,0.41028610398340687,0.06666771147941539,-0.9572138871117613,-1.7017458055939128,1.02784455545877,0.25310435964701705,-1.3466373998619285,18.013748978862367,8.212495461609008,1.5317230409972962,-19.187514169990262,-0.1557035126064241,-1.0516008155659158,1.0426396806575307,-0.9683956281400432,-2.1925926949019825,1.9579178530003245,2.1510983856574803,1.1462593250070197,29.2595797851947,-3.9277373955767065,1.9912996611190734,-16.939405444412913,1.773190883005187,1.7508327599552032,3.239963639822095,1.0590763941065875,-41.54360192374736,17.618939026834134,-1.0844813923804024,2.906389234841756,2.471147518251138,6.4604455715122,-0.644312440943125,-2.9998307453748643,-30.427940189055423,18.95022761075743,2.1250347163172174,4.400976773582464,15.808383611368788,-34.83449259004684,-1.409630758962638,23.47272465093486,0.6303451924498447,3.2736407641375243,1.4925750265927669,0.24609431714724314,-24.614866456286627,5.926652801725754,2.449754305037517,2.1551551363367647,-14.568629669214756,-0.04512252620281247,1.74047578687232,2.7423262262747103,-40.60926909945962,15.21858424424719,15.558479476731778,-0.0638546824680491,2.7053000348638045,-37.35247815884464,12.515695341945296,18.8269927475379,-4.0386439506101794,1.4028491780460015,2.222627613408376,20.023093076135204,0.2273158109379954,4.230891088608749,6.13278767967641,