-0.5626699396032275,0.060076700470130584,0.6026048092625986,-0.5729426124253425,-0.0701512537676503,0.05811978711612886,0.06943122646683486,0.34250272745054944,0.4235702178125018,0.4509020775708408,-0.3846048565033746,0.18716659514447498,0.3353293826805879,0.6771388793176769,-0.6891757118574712,0.5716999005585037,-0.34103381051678017,0.2866119938315903,0.4390929223096831,-0.1504722004807192,-0.6665182991676177,0.3384044452497126,0.35445745462389233,-0.28872146473998334,-0.6411499573556845,-0.09746696572919389,-0.1045936249623709,-0.3750828947200675,0.31421681042243965,0.5210274391024672,0.12300084825106905,0.17597146485226345,0.6236436007817205,-0.32037830519123944,0.3409870337181993,-0.6707674318167964,0.14873834029775623,0.6300907865880909,-0.2144843317631246,0.39405031446480865,0.4654406683614498,-0.11411729075686539,0.047109424504586994,0.22984114576192005,-0.6960884945752965,-0.009936639890833043,0.006073085923836485,-0.4233360375355627,-0.10409489852391629,0.5247085675247507,0.6248463010728658,-0.062286063627574495,0.1831824605353275,0.39474503740828326,-0.45314681661356726,0.3763255612570937,0.5934535289254894,-0.4231405992034457,-0.6987916750628805,-0.48043088185040805,