-0.9730859228066616,-6.295644444297703,-18.172078579457583,-3.573866347285097,-0.7951622409533542,0.2647986961729919,-0.6240289549513062,-0.30064382906312487,-1.941650883441342,-3.4797993133492167,-0.8946668618467188,-2.486585442216699,-1.567114763734194,-4.40167728007934,0.13078109665004145,-0.5089365502414804,-25.914537697837975,-22.938602046171294,0.49517965039771755,-12.376126119831092,-1.1327271913700971,-1.703802414161564,4.28565963906197,1.0310054595477787,-0.8570722718655854,-0.371350445180269,2.154730280471329,-0.2182390091749051,-0.6700358696015539,0.12539855233723343,0.1814936755049583,-0.5995937211072311,-1.5264594140240546,-1.7542566559735273,4.546040446093016,1.4617211192449233,-0.524057365035765,0.5602744163643031,-1.1426025803903526,-1.3880964350861271,-1.1005766012135036,0.6603725706304816,0.1578196086856801,-0.08339851733186456,-12.398575929152218,-6.608572506170396,-5.515011353792548,3.439464018044737,-0.2265904973389856,-0.20977062637735755,-0.15611906022621344,-0.853671813915548,-0.32264644668261,-0.7922716933643238,1.4680740592903927,-0.3682724871012161,-0.1475138091315463,-0.9883269192204222,0.02394166062375415,-0.26521358315916094,15.966762768826275,10.530043909240959,-24.83445618627258,-13.847531737755142,-8.43766323705031,3.357633950698835,2.2028077051910513,-5.015961249879689,-8.106180909627739,0.38787938152383744,1.866621285685758,1.0705016474636457,-0.5133917059937749,-1.378896146536829,-0.3664285293436874,-1.375841147982994,-0.9714401866051007,-2.179152831397677,-0.17200101772167223,-0.9830012465944405,-1.9982242495983802,-4.3330835894617055,0.7436835458474008,0.155124375970166,-8.8266888852044,2.7747147169910145,4.914373928580916,-2.514973253051516,-1.437484516061169,-0.4539452117320228,-0.5044160155338617,0.8495154991039348,-1.112211226079736,-2.4856719596279047,-0.1763672270744121,-1.0205918112718801,-9.509985118280982,3.1283287075077144,5.0677208616460865,-3.0102067932315135,-1.1409914418573581,-1.891317989411299,-0.03149007464887315,-0.9135306381117394,-12.674417452580967,-4.847513306653654,-3.4028355612075534,9.168388385661371,-19.859295820207564,-3.6245318472801014,22.081825561549753,3.97403798067327,0.2868429897903804,2.0533621472726686,-2.7035083664449,-4.2144103477833506,-0.19645228181804136,-1.254540010525511,-0.09058612147950965,-0.588503331484577,-1.2377609794199411,-3.0161824489868585,-0.20174876217866636,-1.0634941742266222,-16.481229697517655,24.876477435548413,5.021909266264137,-11.464328554469756,-0.4666756917579927,1.1917041591960569,-1.3327204371781887,-1.9848450047112696,-2.339975477619795,-3.757838629860938,8.151947579312077,3.795294680836579,-0.5720221555063514,-1.620119429033102,2.6823452624893207,0.5150246917208875,4.114190832132855,-1.5101808518240554,-9.61958656096259,-10.632269019556421,6.245976612485976,4.479988980988311,6.996223800354346,-15.221339586651814,30.077101321365568,-28.57536343243032,-16.76660851715996,1.2731703112766068,-1.034466888929408,-1.517950195634698,3.5774121478000147,0.8204472893889367,-4.037831560506984,-0.4637330967006498,-0.8866248739394952,-3.0742174249907532,-0.5628750304923172,-0.030524750438599466,-0.8080720361718312,-0.5706738616226977,-1.2269782670703009,-2.5279257067222023,4.749279976883559,1.8769536401004565,-1.2518034268562344,-2.9764404699565494,-0.29569456882587,-1.2314981445433701,11.773902373937405,7.821881404959578,-25.34247970484519,-24.451510893858114,-6.684311537721753,-22.811440704195242,0.997031390613076,1.9539732083135057,-19.630261809244104,-18.744631452969323,-0.888566180812145,4.957931713029202,-0.48231542264438193,0.25877202290250073,-0.9789529492352821,-1.0826900851369792,-1.0784898990739966,0.8473181963366817,-0.2652510579992536,-0.21571526048758263,-1.1170194091559575,0.506036097955142,-0.3118594021447107,0.11439864409001976,0.06224529168898396,1.4394433720035391,-2.192945035933997,-3.414721729250037,-14.841261454261387,-1.9478123971193275,4.676119318595346,4.172789191038603,-31.66224157111289,-4.462703795630736,-2.3622991040651122,-1.2267007978865612,-4.7699346819418915,-2.0241436879814705,-2.1091764111861484,13.561573405315984,-0.9379423601501262,-1.789106276788986,-0.5814455966674431,29.801984289521332,9.145609554503709,7.893881231995684,0.47360600545281895,1.1760939829340653,4.418900718842411,9.775210918425325,-2.1906704377834263,1.5774851550237812,10.105765476522327,1.0121125571561207,11.404857560912845,24.682833867919808,-4.520957320819442,-0.12802357892044258,2.261365707467911,-24.099152381682984,-2.589589469115927,-8.320158390184007,-3.0530384484476802,-15.161256705091853,-16.696372171721958,-27.741677689941437,-3.808494901686925,5.087672756813267,-1.5656438405034188,-5.1807424314366814,2.315477992977004,22.221608979539994,22.677252128733183,-24.879736747938445,-1.6028315728006366,-2.326506797362865,-2.2296459201990007,-3.534858435832445,-4.566800572880368,