0.9239821798986753,0.11187032680021756,-0.5189357171316343,-1.5139511420019096,0.7033022421237247,-0.9429552377182294,0.6546938561528141,-0.8399876320768357,-18.5844403599957,-8.529140979482097,7.837599814322797,9.903938749594591,27.1470506471156,3.2125085096882993,-28.64966165943405,-4.175397433909378,-17.612375249601183,-0.1809274288517449,38.223019933125826,25.33891657408512,0.609909720279598,0.5858000897816407,-0.5629558144777626,-1.6734803006415873,1.6061670840548308,1.8197927980423394,-4.287092783111816,-6.2663760232186565,1.8236793956182973,-0.7081941740454475,-0.6743656331399664,-1.6596918179290214,-7.6854700012102795,-7.191228208337482,-2.3675675691089726,-9.76645594298646,0.5197030462821275,0.6023355484334834,-0.30585565019847005,-1.3631776173861814,1.4898079272231215,0.9886780671790851,2.7417146723320527,-1.2733628225258118,1.1081835606383703,0.5583624623956723,-1.504897788355822,-2.789008312823275,11.679846558517019,-14.595573685836815,-4.640428576588877,4.1130894699976706,-3.5926085161816084,14.911111803624985,17.31480622919504,-2.2052294615498886,-0.8565271890426276,-4.037169637171676,-2.17091923357422,-0.22856863453401108,0.4794561967669515,-0.6013637256489021,0.6235431665322487,-0.8702811802693072,-0.3477450553691491,-0.593533214302372,-0.03059071706576023,-0.6143046000274195,13.214977020285401,-8.489779984738359,40.626766551751395,9.773865672288997,-2.5519989576999156,-2.2317950339392887,0.10475369331297678,-0.9920141947204276,0.217819161385242,-0.050476580691824466,0.7998554970369235,-0.7659234052498559,1.2597423014794786,1.3847224877586926,-3.096545444717524,-4.789549633731238,9.781587489430835,-32.82621803246607,-5.2507618720590585,-0.23756759562054322,0.675929851047556,-6.7997105711577746,9.65450776981943,7.097448421800713,-0.3434418721514809,-0.3460382387726861,0.27754120439520247,-0.5021115154860459,-10.812063740236743,-10.195127499665789,-3.184251528329315,-13.410281088449263,-0.6802723626457031,-0.03862071376707804,0.22644802022853983,0.0868589688638702,0.6951713070503946,-1.1482309509982993,0.8313311501573271,-0.6442919323967556,1.6333328043098492,-0.7016737088614318,-0.44043227393018936,-1.3439281885082444,-2.3176490467341835,-37.640515101038815,-1.2454385911979167,5.081643503814413,20.77707181805773,-21.207860548295496,-22.217974207998257,6.796645629273718,-1.1718058279732657,-0.17651276762117427,0.19059807414990973,-0.5166047114969058,-3.8262138292095162,-3.5455325482002813,-0.27683910894456454,-4.1634081898832624,9.831794633540516,-2.524069112791377,-6.094066094920456,-10.558441151767086,-2.9590135910190254,-3.247646587958046,-0.19684903897781303,-3.1387844548557666,-2.938419041173047,-2.1670024927790568,0.3477173590746751,-0.9263347960970457,0.16956295245606065,1.0824217372255358,3.8866474863788714,-0.19353397047388426,-19.577518796304922,-14.471577077212814,-1.157503466656636,21.006060279209464,-0.9980369234398588,-0.13474749389523089,-0.17025562463441066,-0.47541670850413903,-17.34076306914113,10.7897347786372,26.74121529811426,6.96558178303913,0.6361072769111673,-3.3953125502430743,3.892485962685542,0.600329514785529,-3.722043103465927,-2.863286235684088,0.35796189597818884,-3.2932363573914643,-2.864642164044446,-2.368560521403398,-0.4948860773504499,-0.3922102003743579,-46.08583183036285,4.2456604672676725,13.981863230723826,-11.02573560766975,1.1711928672212384,-0.13358439213827647,-0.6134116842189292,-1.595465309272102,2.2541896987686645,1.1832939355470815,4.163016378843597,-1.3709131619311807,0.04485855434141645,-0.15656699399918592,0.5927166991343621,-0.8733622719880634,19.81161967247453,11.969456683530256,4.491422879812748,-22.952633243537576,-4.121841250650949,-2.8085801866386024,0.6169349216115363,-3.419487465876929,0.7720274927029194,0.46196188768816576,-0.7309457252366672,-1.8515620234462644,0.11404125513807782,-0.23269806036409982,0.7817484786116699,-0.40422371172804583,-0.8432500777887842,-0.2602163003390369,-35.75559584965876,-37.147427390939164,-46.837620942236555,-0.9960793980705717,-7.107177533372142,-1.6798402659715816,12.689710236460725,-0.6201373677368777,2.5374332666924464,-2.3330603637441163,-13.601925160963994,20.964210861210102,5.791636307412917,0.013205181096704375,1.0039236269817486,-36.04575931376811,4.938000678546697,0.7786822890310681,-4.979753827855403,-26.479599710185425,12.027008566277841,0.9179117340750762,17.693156406784865,1.4614163489441327,-0.2794240594548213,-1.2856653698736045,35.82844807308956,33.118315634868544,1.460409234594425,7.028991581574006,-15.849902053898477,6.16954081915919,5.333184518096515,3.9140552592260054,23.81869517751342,1.6361851153583564,42.242652071531765,-3.7893276295229392,6.732166035426607,4.756455901324215,-39.32135531246995,-0.971071223873513,4.005398145462233,0.4264678201716766,26.53348510600362,7.149376003378808,-1.2655473813535456,0.7111873963442475,3.9103118398521826,