0.5551537854905528,-0.30935104850081163,-0.48122339373398804,2.79641202801392,0.4499821292222921,0.133470602635554,-0.08754946571148729,-0.1758269606909477,-0.3397510779109617,-0.7874283065379019,-0.9306708070041452,0.16048924172926257,674.6872452975416,-0.31611929261488003,-0.8484255124571213,0.2088615786365364,-663.3906334266337,-0.7666892952642663,-0.6007943734550102,0.09882229824445887,-0.6805210859408691,-0.6714166340538188,0.4426166803864955,-0.0024662366904656396,0.28278909048674805,-0.505717853990163,-0.619795784342388,0.634492782417563,-0.4430734161447001,-0.19043758652050158,0.5607175364327346,-0.6047211762086915,-0.20737093074734858,-0.15560730712652993,0.3936469804478966,0.02686944825762505,0.6309732550198971,0.1918239284069829,-0.39962796424876945,0.21091874736003174,0.5190301315855982,0.24417039869011156,-0.30776938066317266,-0.12925122712701592,0.31209757460500254,4.5427541843333525,-9.006971332427957,-0.2987477310391081,-1.3604017773626549,-4.68118183447297,-1.8703639651734643,7.619819825206912,-8.954445684828826,-0.166755925678431,-1.9629136697657712,-7.776750875320868,-1.7443032019472327,-3.0937471832674057,-4.923019768777429,0.2997431856207131,