0.9752684260557729,0.18036081283834238,-0.6195980397816483,-1.5716862049161566,0.7285023290215135,-0.9464361166196653,0.6720336505258164,-0.8522665377052304,-19.299726396695707,-8.989104449985797,7.769845671746758,10.319148403289118,29.580544774429097,3.51320004365028,-31.202917885366517,-4.51047682529847,-18.96687294967313,0.003499797307074536,40.70038006926326,26.859626851812212,0.6230921061812706,0.6814150906383745,-0.7228157920891929,-1.740717807025765,1.285038758561279,2.379584331604424,-4.55973466061368,-6.945194618455501,1.9685598593960592,-0.6635549524130943,-0.7286309305568358,-1.8250887734771615,-8.882947021696358,-8.45547371219088,-3.3940044802725637,-11.928957296598087,0.5349905011151117,0.6624851883185419,-0.40393937228485005,-1.3976117379458288,1.6135625506094047,1.1931488485998403,3.1274159553648784,-1.370618801612736,1.0580185522152035,0.7428451262465233,-1.8019731631337523,-3.0273734331420976,12.99890226812076,-16.094558438825036,-6.097567463898317,4.383655483512371,-4.058813855933739,17.228601431044723,20.044707733661575,-2.2384212402584733,-2.7251382962353596,-5.276670124832421,-3.1568108271165976,-0.3892547639761864,0.47547182874345634,-0.6016810740864488,0.6217907260883242,-0.8683195819622455,-0.43620613147502335,-0.7020754973263047,-0.07379852949631181,-0.5324856720341888,14.033829483729077,-9.233679509076506,43.16972518679859,10.598835305604702,-3.2782921878830864,-2.8324899315767396,0.05070547219756082,-0.3765713474240852,0.13316648719135799,-0.06605024967673981,0.8061719821029409,-0.7231716367854824,1.047454089465727,1.8003501112750155,-3.3971913154492315,-5.311432124708436,10.381437789724533,-35.89017097282729,-5.731846285098827,-0.13043116168521798,0.7843443708648261,-7.142464895912014,11.102017859387647,7.663376470742151,-0.42449925689233514,-0.41645154599059486,0.23966241199613708,-0.408188319941233,-12.83505403921149,-12.144983413717949,-4.329335777277787,-16.45665627443369,-0.746110167731314,-0.1423763580214777,0.2834994024228046,0.21471345210751067,0.7180248336553144,-1.161648406178711,0.8590903295904048,-0.661622984849241,1.7628592745236285,-0.6590646318854788,-0.48244089053761496,-1.4507544013125069,-1.9148023381620376,-39.296159533024976,-1.339845978403941,5.282166144170768,22.391199122370264,-22.609875532330243,-23.212516938207667,6.990652358663834,-1.1760348418949778,-0.29552506023229874,0.18850996478273885,-0.46507160866097985,-4.1599392249182205,-4.03207630125081,-0.5376273973590383,-4.730065069367904,9.948700184759607,-2.4629870844507993,-6.270718427432976,-11.040628613978106,-3.121063365754335,-3.5542935821620127,-0.30251072896904635,-3.326407141422961,-4.159197310920703,-2.928875193249558,0.0498325531245987,-0.31010950489331235,0.2806491500685196,1.473623566298321,4.129848839430851,-0.5747897988110157,-20.821106080852093,-16.063190351808583,-1.722257878239476,22.759377914156367,-1.0080873267495,-0.274240958760991,-0.13545234096977776,-0.4042196833660899,-18.75472933880282,11.553125294959363,29.178524145166257,7.661194146939012,0.9503114260578488,-3.867136346373968,4.321788366940159,0.9801119495856521,-3.897801988809171,-3.2045089081312628,0.2718068402157349,-3.5286410636220915,-4.590664302917571,-3.401341527300302,-1.3887915618979811,-0.6270893695477125,-50.28228930910079,5.168513645795026,15.361362763277375,-11.964918861630991,1.243336423293185,-0.06442269302262653,-0.7070283131160948,-1.6690587757808033,2.528584435571712,1.4341454631154296,4.735044688684276,-1.3956114129537547,0.001096810606038212,-0.16920207338325807,0.5855589021041062,-0.8428404339439479,21.50837789975925,12.91492828931782,4.536030859930876,-24.909169583239905,-4.317619254912816,-3.1747734262181853,0.5117479266267672,-3.718722750112488,0.7896200044579366,0.5729562446542251,-0.9199200412209542,-1.9481044911189773,0.028153346199369295,-0.25311719797594984,0.7597263807780893,-0.33638355703736783,-1.0218265684514813,-0.2464462011398257,-39.662805221059095,-41.495616471179524,-52.0009161661564,-1.220832306275087,-8.20419427638054,-1.9106950812753338,14.995244108379682,-0.7832973909105229,2.824949562541223,-2.789164179028029,-15.03292104726289,24.104802378626456,6.942403467172401,0.05429702761009168,1.2040230711827615,-39.78315531970571,5.571944013394594,0.8490624973968705,-5.853603857490208,-29.48363762889943,13.491080069755627,1.0929562882233295,21.34761629090621,1.6891046841205186,-0.2762089040414717,-1.4625039930350217,39.3585299888188,35.807284545884364,1.6562194711560758,7.654404472824995,-17.022504167096432,6.668799722880371,6.094970487246737,4.217393748289757,26.903152181649574,1.8278546207692434,46.83890290576198,-4.473547039006205,7.23057813270314,5.857585701887571,-44.13432031262386,-1.1639617073738187,4.5721238543483445,0.5081266773772491,28.922512268074957,7.658708436737451,-1.52160226373497,0.8230724857133479,4.102535234780229,