-0.6702599762442669,-1.943657351040606,-10.839463978897292,-3.300614795015698,-0.24193406442777368,0.32935923791985305,-0.2293662420621298,-0.818813977554467,-1.7148869902398591,-1.9475096634324576,-0.5572043998804733,-1.8378867662653018,-0.7385541368862862,-3.3350352819358124,-0.4606657169608595,0.534479537512232,-22.74031709007626,-17.04690611092899,-0.26881756300357845,-12.009357848975258,0.3173473030495129,-0.2709903420686138,1.6230418089764413,-0.7170739699652274,-0.21767443292675231,0.08028283215756593,0.9500149481580631,-0.8322319026232056,-0.5126531745799839,-0.01928321544826653,0.1988685266465375,-0.9654985356692746,-0.24080153333308335,-0.07295277240002357,1.5364165645196455,-0.12435778271897678,-0.31481645976476097,0.5246684857143287,-0.5695705587788998,-1.4947139979124051,-0.5802147775085521,0.54182573400976,0.2588292888630413,-0.7967930615303381,-2.917536653233417,-4.896335022067657,-1.3085246336589744,2.64275847530962,0.039171703503487,-0.21318634849922175,-0.005036765791447389,-1.0673615413801858,0.3890772994195048,-0.30819032136997826,0.647863799359815,-0.7609117332113283,-0.12290813138834121,-1.019174393125645,0.06717952301111574,-0.3716640636047188,10.50215093355433,6.440939915443553,-16.217427353006798,-8.783229641429212,-7.3531898354231,3.4707468531718186,0.7272035769865018,-5.098517057893987,-3.8859860427660493,0.6459028953821154,0.21488680848866346,-2.579494312396203,-0.22005888592515632,-1.0765661248973832,-0.42353840322295094,-1.2104614048595892,-0.3244444087940116,-1.5536136912728558,-0.27688042851746963,-0.5776570822532471,-1.0578781128500674,-3.506572314913454,-0.36903939335336605,0.9587668185570064,-7.288566844441953,3.477469179165757,2.9035576006589605,-2.834222931841385,-0.43191175993005987,-0.030187649914252095,0.049616443363612574,-0.0037018705036766524,-0.36437688330614443,-1.7392152058798687,-0.3492043416055323,-0.5466759444769769,-7.520927992676577,4.150294786131203,3.1623555021062884,-3.3492585830837265,-0.5668039280211982,-1.3701347061618045,-0.03239308352649019,-0.6028590835877087,-3.910493621480276,-1.0523871232943358,-0.9912937703043279,0.6383607737050455,-15.150976248327632,-2.056661538321407,16.85376248204774,2.006131223160541,-0.20155894400353808,0.9661290072832995,-1.885255068079404,-3.221016153194989,-0.13264984043068956,-1.1858703206309136,-0.05480471084677422,-0.5306439435435876,-0.40848806593158604,-2.1008154874724907,-0.4813997833150941,-0.4538882225811468,-7.590856138956884,12.075237062540209,1.77355933743872,-6.1318051528714,-0.7028542650946983,0.7698370709004556,-0.4799983367144388,-1.9829889150155111,-0.3307107087418725,-0.23118982827148046,2.113520988177842,0.40976499295092167,0.6175272161045797,-0.5154279915374718,0.8853820789851929,-0.22442622498086065,3.4179180807180494,-1.0696385473522918,-8.500235828553027,-9.843841150938129,5.209809015147711,3.721760981325804,5.829016566850292,-13.056902923928982,19.313560022500326,-17.67032663439189,-10.96779888041959,0.13875570251626615,0.16619363469011694,-0.2508151319703882,1.3144732585423444,-0.379175708918722,-3.4237242858026904,-0.1378969371091946,-0.3762808268130709,-3.200447841576837,-0.16368367590186936,0.024804745015818124,-0.36670696636925837,-0.9205569883358304,0.5179599673059828,-0.5074167158354002,1.4932328941631454,-0.14204651061986098,-0.4593192553179255,-2.0491939007700535,-0.5754120735465343,-0.6723998593822561,8.836601702801527,4.855592597263985,-18.08948892946758,-17.113877090947142,-4.674287558879871,-20.050591486277977,0.9428518672563061,2.1381349888983534,-17.461679678239854,-15.258199286173813,-0.40613192506971735,3.721171674338408,-0.16692650594293648,0.26591191667077624,-0.48267676567599616,-1.2927449152181694,-0.6005985529737068,0.6385622837588623,0.0725340418033767,-1.006034497825469,-0.42636127260096424,0.4819180908152223,0.062238506097795805,-0.6724749633396876,-0.37830240816586397,0.8454856161705246,-1.3921460994507135,-2.66933314248896,-7.003429998836773,-1.0813109210694578,3.146986257627129,2.7755001698463784,-22.94028276477775,-1.8120989501339042,-1.1144770340418582,-0.5813871214267886,-1.6732382303748572,-1.2226052753353394,-1.2240720597643147,5.73830836074758,-0.44727721615657895,-0.9268303115383687,0.012155057852175475,17.07598242722668,7.549687588683904,4.318098983584351,0.42332379432034767,0.7072462335686646,3.0062337821677834,7.495787779122525,-0.6508212231903655,0.8905467889588025,7.755621802288523,0.5663593719768925,3.215511608373541,15.466642556686732,-2.553340992664521,0.21744260390746623,1.283859667857836,-13.010622072614343,-1.7336694435939548,-2.2370826048827315,-1.342654863989591,-11.17645702286863,-11.598783742813344,-15.09748272171525,-1.4792323746667833,3.9415690316968015,-0.736479476923312,-1.8627311584494044,1.3018982588081367,14.139271554867078,16.71111913889976,-17.576472742705935,-0.8273305681695748,-1.4883229938776688,-1.2538712783259374,-2.0450512487478023,-2.7705037480604298,