-1.9727991187018834,7.506550700794721,3.290433133572686,1.0869917408858103,-6.838887058559674,-0.653836655086224,-2.5668067523179494,0.31095645737273736,5.1676969043595395,2.5519089076475048,-1.805111925254357,8.286259817595761,2.543041970652875,-2.6180778860107017,-3.2459994284210074,-4.695492707205799,7.383217732825727,4.044954433764796,-6.203339068276119,0.19465154187062642,-0.5621449018217819,-2.2414826763979216,-0.6596566624388471,4.919585430530109,1.3782457283307532,-4.827177968858183,2.2448140512717756,2.1357155900404714,6.834029424715121,6.935608288284528,-2.840410121594639,2.2718397381805207,-3.5012606749798456,-4.341142049056721,1.398575986024238,2.0621956433872985,7.589333040080436,-1.9596487492173726,-1.496749931107109,-6.043145572021312,22.20029251824638,8.527666064996929,-9.41475221913782,-2.5718219044125963,-8.228872341551824,3.761715659156672,-7.10953024464003,-0.5080106026874324,-3.5964398194911475,5.888749922018355,-0.588128144777349,0.4902115466629284,-0.39687710370244295,-1.2222904614094467,-0.5604387394673037,1.6664934680910424,-0.5269565443996534,-2.303134764919757,-0.6442976521589617,4.5594625236136626,9.791126241887559,-2.5656335897438667,-0.5556598408383071,-4.085474600527033,-5.219532793516169,4.539217561375496,-0.9735428404678103,0.6207657596678432,0.5137720749385031,0.5029767578484058,0.8473666969728648,0.5304101347107141,-0.7805326068709609,-6.202027762324569,5.914873526776935,1.1186855181485524,-1.731146724887406,-4.079562601899235,-0.5510055591037847,-1.0153899293864725,1.0587899922404715,-3.836244311822596,1.9297712676284795,0.6363990591477238,0.5531946018698629,2.1595190873222068,0.5992317476932663,-3.9982322386626454,0.4202176595957714,1.5464293019487434,0.61366106056769,-2.5645158999800177,6.094358288087868,-10.744195963777454,1.7119733961120251,2.165123297880024,3.8125339327676984,-4.745851311681082,-1.5439604912097489,-2.841517066486726,0.2334621827057376,0.278728409455067,1.1717118916314795,-0.12946707614363295,-1.275905086752776,-0.6312021127624975,1.4309048698328113,12.201875784314822,1.426579573395703,3.5241443148076175,-4.289806598907321,-3.5652527336105546,-6.894915930848816,5.3614915077952725,-0.6694985957769134,-3.833031139831813,-1.9645864578060726,-0.44027933066584946,3.29558696065277,0.039418619869561175,0.4932122512639599,0.7054231229112707,0.7792427318324241,0.5199002629047796,-3.7029847843194545,18.38590846360155,-5.015805422471795,-3.7272148046646856,-0.8614100944554824,-0.5145137087524237,-0.7503042444000924,-0.15357290294600726,-0.35283005576067944,0.16046596286213774,-1.6331087570358984,-0.653820383477598,-0.4712984116143085,-1.1534165528932532,7.713023869395768,-0.473468109376802,1.0795810668040218,0.03132052076941592,0.16925133991142735,-1.013553983616692,0.24756534079025777,-1.0951714979395224,-0.6639269791096942,-0.1112504027690768,-0.740045138975584,0.1381453678901633,-0.027618223600178335,-1.3484826801880996,-0.36948240794188336,-0.606637989863073,0.4526799564138499,0.08292439321953221,0.5128802568009695,-1.1557440067684144,-0.7679449694214335,0.9003020434989768,-1.023622577478997,0.7384078161156783,-1.4935549277841413,-2.208072900862309,1.0026159637519712,-5.328116318080901,4.1902791991161825,-6.401978936759346,-3.3079111804843153,0.7424745869624225,6.718271490084808,3.0314661156057943,7.065293133741844,0.9814618147643174,1.4734889847345027,4.219790125600115,7.614608630623886,3.8537728757081977,1.4184793349634115,2.122212343022911,-1.379075885329958,-2.098368560949782,-2.972024330304939,-1.3745109519912184,-5.390925906478797,5.0454154274554766,0.7004318021989491,-5.80192340141999,4.620077662501473,-1.3974309745003743,1.9827081892550116,1.339883457478005,-6.053568245139156,0.4992062948237327,0.22479369929790516,-1.5055623967886034,-0.22670675786122174,1.3096635294271963,7.941182062284777,1.1785839431572602,0.32134463823322557,-1.4270962695868505,-1.034139344165902,3.1720332001598157,-2.306507167004396,-0.22410438409166697,4.0126409402931635,1.0471766799155173,0.8996217350949425,4.047665150198669,-0.9016402410653458,-0.28790721299205563,-0.9293398115693512,0.36775082398701225,0.7620890237585541,-1.4447450108402822,-1.7202146211428755,0.703179791320873,3.209208182508822,-0.8268380049739417,0.2937490859494023,-0.9628752045098862,-1.659695763172575,-0.9355503241299294,-1.2117716843351125,-5.839305308526269,-0.1798713345085356,0.5498672831266896,-1.6614004592725635,-0.68193374228361,0.8190222027814776,0.09670848327807863,0.09851400831593553,-0.3526605931352905,-0.5209215088991453,0.7759325144712528,-5.409610874538392,-0.06718796746490281,-0.7588933015617417,0.11142496540827707,-0.6503951541585755,-0.14909409227694495,-1.84936030107062,0.39196240241587377,0.9014313856344159,-8.47342654455784,0.8429621372629067,0.7729002381481759,0.5380165870544916,1.180596306818108,2.7750235159821535,0.04137554058000058,0.2834919930734661,0.7219055495502119,-0.9308719837432977,-0.5571321173654082,-1.4392906070058735,-0.21449817305798075,0.7562204157134985,-0.060318375922531066,2.4648422504821808,-6.033471516711702,3.1808449208312592,-4.23987937896782,-2.9390347941136725,1.9486696650062618,-4.318634344996265,-5.664768781786233,2.6397532459845348,7.270520078762776,-1.4858839375647328,1.837167012435311,1.3716635571718883,1.5592721609626186,1.5336135526500023,6.431778113921868,2.747024575149306,0.11644411900672522,0.09175116061326687,-2.6130388917595178,-1.8468872751687693,-2.2127368810605894,-1.5396346467651483,0.5748341907487525,-7.830884533120832,0.11229296418958068,7.066759111312741,-1.140977395011316,6.995091427719287,-0.06622034490127157,-0.5564566943763527,-5.850097528952812,-0.3659420923332539,-2.7295099668680813,-1.424290015495332,-0.6862988371726056,2.5782780760943345,1.9037059932485212,-1.0457113581789117,-3.315845886018519,-0.7309934133518594,-0.8438032651199221,-3.7096401584017125,1.2807530154674807,-1.071288190711883,-3.3426851180221835,-0.08096727186310415,0.25440050044500234,-0.5439879301036038,-0.7988265622402029,-0.35465253423109155,-6.018482525221621,0.893190625947933,1.7323842801025278,1.3899753171596798,1.2759791161403595,4.602477766583331,-1.6272823430687737,-0.39832259992905145,-0.8218113968231009,2.9826615538277954,-2.078441571956615,-3.1998690134450207,0.2823588533692052,0.1537475217990444,-0.06040138372084204,0.24692915798890833,-6.677947154516482,1.4104420699342364,-1.7318880277221829,-6.206384748155122,1.3228316271090452,-1.165986905828227,-5.295577421403766,0.7694497022161054,1.46065766325762,-6.1304055319014825,-4.412314728440822,1.7249684018892457,1.0036241871095337,1.4664195824928787,4.825431304206573,1.676179402083751,-0.7271056616728127,0.41050878626143616,-2.2405426171719696,-0.07277508482648239,-1.577841064326032,-1.5128603946050034,1.1782014085962462,-0.3082651562142094,0.049793899655938244,-1.1891733677893983,-0.26685322129158984,2.094745031133813,0.23364683639189907,0.42517711653528706,-4.887763975776847,-0.5323969570125808,0.18079737417712996,-1.9704962356652307,-4.238487805935402,-3.8054737115622235,8.352735541287512,-0.4034421772717018,2.8954251775313717,-1.358422365344981,0.10930687843498853,2.3006747632295284,5.011943662169717,7.623931159227083,-0.7237777344223845,-0.11731607412022092,-0.9023527675117116,-1.351953486747732,-2.41869223015334,-0.0841734522215335,0.07762635159913403,0.4584651627744363,2.6841545748134763,-0.17369350790352595,0.16085667366843212,0.5487014845359128,0.26150018168744144,-0.6571492432169108,-0.917401635934277,0.07552864713508559,-1.1258165843686023,-0.9211778725620852,0.2420884134253665,0.980375967470246,-0.5096458397672801,1.5169848737375873,-9.95954104521186,-7.994867635560064,6.650576774503728,-9.185078621185445,5.712083371946842,-8.575324695572181,7.798558390430973,8.33119615949294,